<?xml version="1.0"?>
<opencv_storage>
<cascade>
  <stageType>BOOST</stageType>
  <featureType>HAAR</featureType>
  <height>22</height>
  <width>22</width>
  <stageParams>
    <boostType>GAB</boostType>
    <minHitRate>9.9500000476837158e-01</minHitRate>
    <maxFalseAlarm>2.5000000000000000e-01</maxFalseAlarm>
    <weightTrimRate>9.4999999999999996e-01</weightTrimRate>
    <maxDepth>1</maxDepth>
    <maxWeakCount>100</maxWeakCount></stageParams>
  <featureParams>
    <maxCatCount>0</maxCatCount>
    <featSize>1</featSize>
    <mode>BASIC</mode></featureParams>
  <stageNum>14</stageNum>
  <stages>
    <!-- stage 0 -->
    <_>
      <maxWeakCount>9</maxWeakCount>
      <stageThreshold>-5.3758281469345093e-01</stageThreshold>
      <weakClassifiers>
        <_>
          <internalNodes>
            0 -1 22 1.8089806661009789e-02</internalNodes>
          <leafValues>
            -5.1583713293075562e-01 8.2849603891372681e-01</leafValues></_>
        <_>
          <internalNodes>
            0 -1 210 4.6238907088991255e-05</internalNodes>
          <leafValues>
            -6.4355301856994629e-01 5.4552590847015381e-01</leafValues></_>
        <_>
          <internalNodes>
            0 -1 7 1.7327163368463516e-02</internalNodes>
          <leafValues>
            -3.8437235355377197e-01 7.3371475934982300e-01</leafValues></_>
        <_>
          <internalNodes>
            0 -1 158 -1.0727431625127792e-02</internalNodes>
          <leafValues>
            3.9164069294929504e-01 -8.0754578113555908e-01</leafValues></_>
        <_>
          <internalNodes>
            0 -1 157 -2.2088023833930492e-03</internalNodes>
          <leafValues>
            -8.5907602310180664e-01 2.7539646625518799e-01</leafValues></_>
        <_>
          <internalNodes>
            0 -1 164 2.3924164474010468e-02</internalNodes>
          <leafValues>
            2.0512656867504120e-01 -9.6911841630935669e-01</leafValues></_>
        <_>
          <internalNodes>
            0 -1 156 -1.3392042601481080e-03</internalNodes>
          <leafValues>
            -8.5873085260391235e-01 2.6356491446495056e-01</leafValues></_>
        <_>
          <internalNodes>
            0 -1 237 -4.6435706317424774e-03</internalNodes>
          <leafValues>
            6.3383305072784424e-01 -4.1711673140525818e-01</leafValues></_>
        <_>
          <internalNodes>
            0 -1 169 7.4568707495927811e-03</internalNodes>
          <leafValues>
            3.0188399553298950e-01 -9.2733448743820190e-01</leafValues></_></weakClassifiers></_>
    <!-- stage 1 -->
    <_>
      <maxWeakCount>8</maxWeakCount>
      <stageThreshold>-6.2067031860351562e-01</stageThreshold>
      <weakClassifiers>
        <_>
          <internalNodes>
            0 -1 56 -3.0745830386877060e-02</internalNodes>
          <leafValues>
            6.7685592174530029e-01 -7.7464789152145386e-01</leafValues></_>
        <_>
          <internalNodes>
            0 -1 62 6.1928167939186096e-02</internalNodes>
          <leafValues>
            -5.2796638011932373e-01 7.1083861589431763e-01</leafValues></_>
        <_>
          <internalNodes>
            0 -1 186 4.7601457481505349e-05</internalNodes>
          <leafValues>
            3.0468770861625671e-01 -9.5000046491622925e-01</leafValues></_>
        <_>
          <internalNodes>
            0 -1 18 1.1002755723893642e-02</internalNodes>
          <leafValues>
            -3.6051502823829651e-01 6.9467759132385254e-01</leafValues></_>
        <_>
          <internalNodes>
            0 -1 193 2.0762965083122253e-02</internalNodes>
          <leafValues>
            -3.9581230282783508e-01 6.0601288080215454e-01</leafValues></_>
        <_>
          <internalNodes>
            0 -1 143 -8.4418032201938331e-05</internalNodes>
          <leafValues>
            4.1335165500640869e-01 -6.7266863584518433e-01</leafValues></_>
        <_>
          <internalNodes>
            0 -1 24 6.5823504701256752e-04</internalNodes>
          <leafValues>
            -3.1409764289855957e-01 7.5255990028381348e-01</leafValues></_>
        <_>
          <internalNodes>
            0 -1 202 -2.9282371979206800e-03</internalNodes>
          <leafValues>
            6.6884607076644897e-01 -3.2327231764793396e-01</leafValues></_></weakClassifiers></_>
    <!-- stage 2 -->
    <_>
      <maxWeakCount>12</maxWeakCount>
      <stageThreshold>-4.3762564659118652e-01</stageThreshold>
      <weakClassifiers>
        <_>
          <internalNodes>
            0 -1 103 1.4200198464095592e-02</internalNodes>
          <leafValues>
            -5.0131231546401978e-01 7.2161173820495605e-01</leafValues></_>
        <_>
          <internalNodes>
            0 -1 211 -6.5428435802459717e-02</internalNodes>
          <leafValues>
            7.0268261432647705e-01 -3.0088958144187927e-01</leafValues></_>
        <_>
          <internalNodes>
            0 -1 3 5.9303555637598038e-02</internalNodes>
          <leafValues>
            -3.1680014729499817e-01 5.9759992361068726e-01</leafValues></_>
        <_>
          <internalNodes>
            0 -1 232 -5.1777656190097332e-03</internalNodes>
          <leafValues>
            6.6315698623657227e-01 -2.5417262315750122e-01</leafValues></_>
        <_>
          <internalNodes>
            0 -1 96 -1.6017374582588673e-04</internalNodes>
          <leafValues>
            2.0492425560951233e-01 -8.6735641956329346e-01</leafValues></_>
        <_>
          <internalNodes>
            0 -1 25 -3.5046322736889124e-03</internalNodes>
          <leafValues>
            8.3586210012435913e-01 -2.3877513408660889e-01</leafValues></_>
        <_>
          <internalNodes>
            0 -1 221 2.6516646146774292e-02</internalNodes>
          <leafValues>
            -2.8527843952178955e-01 6.0054546594619751e-01</leafValues></_>
        <_>
          <internalNodes>
            0 -1 179 2.8905561193823814e-03</internalNodes>
          <leafValues>
            -4.6187472343444824e-01 3.9211517572402954e-01</leafValues></_>
        <_>
          <internalNodes>
            0 -1 97 1.9130484361085109e-05</internalNodes>
          <leafValues>
            -5.1204389333724976e-01 3.4444880485534668e-01</leafValues></_>
        <_>
          <internalNodes>
            0 -1 54 -1.8592302221804857e-03</internalNodes>
          <leafValues>
            4.9410405755043030e-01 -3.5881400108337402e-01</leafValues></_>
        <_>
          <internalNodes>
            0 -1 195 3.0591036193072796e-03</internalNodes>
          <leafValues>
            1.9765564799308777e-01 -8.6899030208587646e-01</leafValues></_>
        <_>
          <internalNodes>
            0 -1 102 1.0834882035851479e-02</internalNodes>
          <leafValues>
            -2.3512734472751617e-01 8.9836156368255615e-01</leafValues></_></weakClassifiers></_>
    <!-- stage 3 -->
    <_>
      <maxWeakCount>10</maxWeakCount>
      <stageThreshold>-5.7203364372253418e-01</stageThreshold>
      <weakClassifiers>
        <_>
          <internalNodes>
            0 -1 153 -1.4358453918248415e-03</internalNodes>
          <leafValues>
            -6.4315354824066162e-01 5.7872784137725830e-01</leafValues></_>
        <_>
          <internalNodes>
            0 -1 36 -3.0669695697724819e-03</internalNodes>
          <leafValues>
            4.3899679183959961e-01 -5.8357930183410645e-01</leafValues></_>
        <_>
          <internalNodes>
            0 -1 197 -1.5861502106417902e-05</internalNodes>
          <leafValues>
            2.7804219722747803e-01 -8.9133483171463013e-01</leafValues></_>
        <_>
          <internalNodes>
            0 -1 224 -1.4998545520938933e-04</internalNodes>
          <leafValues>
            -7.2817319631576538e-01 1.9546213746070862e-01</leafValues></_>
        <_>
          <internalNodes>
            0 -1 11 8.7400581687688828e-03</internalNodes>
          <leafValues>
            -2.5664049386978149e-01 8.0970716476440430e-01</leafValues></_>
        <_>
          <internalNodes>
            0 -1 152 -5.7720742188394070e-03</internalNodes>
          <leafValues>
            -9.3326401710510254e-01 1.9897329807281494e-01</leafValues></_>
        <_>
          <internalNodes>
            0 -1 83 -6.5673328936100006e-04</internalNodes>
          <leafValues>
            -7.5684040784835815e-01 1.8294994533061981e-01</leafValues></_>
        <_>
          <internalNodes>
            0 -1 122 -2.0000739023089409e-03</internalNodes>
          <leafValues>
            -8.6769139766693115e-01 1.1881910264492035e-01</leafValues></_>
        <_>
          <internalNodes>
            0 -1 231 1.9359062425792217e-03</internalNodes>
          <leafValues>
            -4.3195560574531555e-01 4.0690365433692932e-01</leafValues></_>
        <_>
          <internalNodes>
            0 -1 106 1.8751105526462197e-03</internalNodes>
          <leafValues>
            2.3375846445560455e-01 -7.6349949836730957e-01</leafValues></_></weakClassifiers></_>
    <!-- stage 4 -->
    <_>
      <maxWeakCount>13</maxWeakCount>
      <stageThreshold>-3.7075972557067871e-01</stageThreshold>
      <weakClassifiers>
        <_>
          <internalNodes>
            0 -1 2 1.5710340812802315e-02</internalNodes>
          <leafValues>
            -1.5869981050491333e-01 7.1344166994094849e-01</leafValues></_>
        <_>
          <internalNodes>
            0 -1 241 -2.9945047572255135e-03</internalNodes>
          <leafValues>
            5.1482445001602173e-01 -3.3230572938919067e-01</leafValues></_>
        <_>
          <internalNodes>
            0 -1 251 -3.4295349905733019e-05</internalNodes>
          <leafValues>
            2.5693777203559875e-01 -5.8058309555053711e-01</leafValues></_>
        <_>
          <internalNodes>
            0 -1 5 5.3481571376323700e-02</internalNodes>
          <leafValues>
            -2.4485945701599121e-01 5.6013095378875732e-01</leafValues></_>
        <_>
          <internalNodes>
            0 -1 233 -3.2619379926472902e-03</internalNodes>
          <leafValues>
            4.7102668881416321e-01 -3.0515578389167786e-01</leafValues></_>
        <_>
          <internalNodes>
            0 -1 92 4.0977605385705829e-04</internalNodes>
          <leafValues>
            1.7928177118301392e-01 -9.3592822551727295e-01</leafValues></_>
        <_>
          <internalNodes>
            0 -1 123 2.2760078310966492e-02</internalNodes>
          <leafValues>
            8.5638359189033508e-02 -1.</leafValues></_>
        <_>
          <internalNodes>
            0 -1 137 4.0919876482803375e-05</internalNodes>
          <leafValues>
            -5.9096163511276245e-01 1.9657388329505920e-01</leafValues></_>
        <_>
          <internalNodes>
            0 -1 248 4.1304766200482845e-03</internalNodes>
          <leafValues>
            -2.2450190782546997e-01 5.7171928882598877e-01</leafValues></_>
        <_>
          <internalNodes>
            0 -1 245 -6.0013127513229847e-03</internalNodes>
          <leafValues>
            6.0145437717437744e-01 -2.0537474751472473e-01</leafValues></_>
        <_>
          <internalNodes>
            0 -1 121 1.2280559167265892e-02</internalNodes>
          <leafValues>
            1.6933433711528778e-01 -9.4603377580642700e-01</leafValues></_>
        <_>
          <internalNodes>
            0 -1 239 1.6136324265971780e-03</internalNodes>
          <leafValues>
            -2.5154909491539001e-01 5.9120255708694458e-01</leafValues></_>
        <_>
          <internalNodes>
            0 -1 32 -1.2443339452147484e-02</internalNodes>
          <leafValues>
            5.2525907754898071e-01 -2.3011294007301331e-01</leafValues></_></weakClassifiers></_>
    <!-- stage 5 -->
    <_>
      <maxWeakCount>16</maxWeakCount>
      <stageThreshold>-3.4397503733634949e-01</stageThreshold>
      <weakClassifiers>
        <_>
          <internalNodes>
            0 -1 64 1.2165507301688194e-02</internalNodes>
          <leafValues>
            -2.1491228044033051e-01 6.6935485601425171e-01</leafValues></_>
        <_>
          <internalNodes>
            0 -1 159 -9.3101188540458679e-03</internalNodes>
          <leafValues>
            4.5978778600692749e-01 -3.6095696687698364e-01</leafValues></_>
        <_>
          <internalNodes>
            0 -1 166 2.1895887330174446e-03</internalNodes>
          <leafValues>
            -3.7917444109916687e-01 4.5935723185539246e-01</leafValues></_>
        <_>
          <internalNodes>
            0 -1 17 1.4227324165403843e-02</internalNodes>
          <leafValues>
            -2.7954700589179993e-01 4.9063616991043091e-01</leafValues></_>
        <_>
          <internalNodes>
            0 -1 94 -3.1626543204765767e-05</internalNodes>
          <leafValues>
            1.8261432647705078e-01 -6.7313086986541748e-01</leafValues></_>
        <_>
          <internalNodes>
            0 -1 89 1.0902351699769497e-02</internalNodes>
          <leafValues>
            1.5292939543724060e-01 -7.9905349016189575e-01</leafValues></_>
        <_>
          <internalNodes>
            0 -1 139 1.1792723089456558e-03</internalNodes>
          <leafValues>
            1.5539957582950592e-01 -6.9444942474365234e-01</leafValues></_>
        <_>
          <internalNodes>
            0 -1 33 2.7535408735275269e-03</internalNodes>
          <leafValues>
            -2.7138561010360718e-01 4.6683639287948608e-01</leafValues></_>
        <_>
          <internalNodes>
            0 -1 176 -9.7892584744840860e-04</internalNodes>
          <leafValues>
            6.4596909284591675e-01 -1.9564537703990936e-01</leafValues></_>
        <_>
          <internalNodes>
            0 -1 215 1.4953955542296171e-03</internalNodes>
          <leafValues>
            -2.7933958172798157e-01 4.7866764664649963e-01</leafValues></_>
        <_>
          <internalNodes>
            0 -1 37 -1.3745401054620743e-02</internalNodes>
          <leafValues>
            -6.8862718343734741e-01 1.9204738736152649e-01</leafValues></_>
        <_>
          <internalNodes>
            0 -1 88 5.6068925186991692e-03</internalNodes>
          <leafValues>
            1.2267049401998520e-01 -8.8877302408218384e-01</leafValues></_>
        <_>
          <internalNodes>
            0 -1 59 -4.7239288687705994e-03</internalNodes>
          <leafValues>
            2.8278720378875732e-01 -4.0996107459068298e-01</leafValues></_>
        <_>
          <internalNodes>
            0 -1 214 -3.5548351705074310e-02</internalNodes>
          <leafValues>
            8.6357837915420532e-01 -1.5201881527900696e-01</leafValues></_>
        <_>
          <internalNodes>
            0 -1 43 5.9862609487026930e-04</internalNodes>
          <leafValues>
            -1.6212737560272217e-01 6.3898807764053345e-01</leafValues></_>
        <_>
          <internalNodes>
            0 -1 72 -1.4740045116923284e-05</internalNodes>
          <leafValues>
            2.3200865089893341e-01 -6.3713777065277100e-01</leafValues></_></weakClassifiers></_>
    <!-- stage 6 -->
    <_>
      <maxWeakCount>19</maxWeakCount>
      <stageThreshold>-3.0339008569717407e-01</stageThreshold>
      <weakClassifiers>
        <_>
          <internalNodes>
            0 -1 49 7.9808719456195831e-03</internalNodes>
          <leafValues>
            -1.6033755242824554e-01 6.5564739704132080e-01</leafValues></_>
        <_>
          <internalNodes>
            0 -1 116 -1.1928861029446125e-02</internalNodes>
          <leafValues>
            6.4667665958404541e-01 -1.7377352714538574e-01</leafValues></_>
        <_>
          <internalNodes>
            0 -1 177 -1.6127437120303512e-03</internalNodes>
          <leafValues>
            2.7598276734352112e-01 -5.0952881574630737e-01</leafValues></_>
        <_>
          <internalNodes>
            0 -1 182 5.0713226664811373e-04</internalNodes>
          <leafValues>
            -4.8740220069885254e-01 2.4605585634708405e-01</leafValues></_>
        <_>
          <internalNodes>
            0 -1 146 2.7522824238985777e-03</internalNodes>
          <leafValues>
            -2.7752918004989624e-01 4.5661312341690063e-01</leafValues></_>
        <_>
          <internalNodes>
            0 -1 117 -8.4054714534431696e-04</internalNodes>
          <leafValues>
            -6.2650102376937866e-01 2.3624233901500702e-01</leafValues></_>
        <_>
          <internalNodes>
            0 -1 39 1.0882157366722822e-03</internalNodes>
          <leafValues>
            -2.5887402892112732e-01 5.3522688150405884e-01</leafValues></_>
        <_>
          <internalNodes>
            0 -1 133 4.5019267126917839e-03</internalNodes>
          <leafValues>
            2.2789429128170013e-01 -7.2133612632751465e-01</leafValues></_>
        <_>
          <internalNodes>
            0 -1 178 -1.3248806819319725e-02</internalNodes>
          <leafValues>
            5.8216810226440430e-01 -2.4848146736621857e-01</leafValues></_>
        <_>
          <internalNodes>
            0 -1 227 1.6254022484645247e-03</internalNodes>
          <leafValues>
            -2.6989382505416870e-01 4.5298919081687927e-01</leafValues></_>
        <_>
          <internalNodes>
            0 -1 180 3.0794329941272736e-03</internalNodes>
          <leafValues>
            -2.7308955788612366e-01 5.1973271369934082e-01</leafValues></_>
        <_>
          <internalNodes>
            0 -1 206 -1.0915830498561263e-03</internalNodes>
          <leafValues>
            -9.2023098468780518e-01 1.3169039785861969e-01</leafValues></_>
        <_>
          <internalNodes>
            0 -1 135 -1.5136597678065300e-02</internalNodes>
          <leafValues>
            3.2131233811378479e-01 -3.4015366435050964e-01</leafValues></_>
        <_>
          <internalNodes>
            0 -1 141 1.0404823115095496e-04</internalNodes>
          <leafValues>
            -4.3713191151618958e-01 3.3129724860191345e-01</leafValues></_>
        <_>
          <internalNodes>
            0 -1 19 7.3588574305176735e-03</internalNodes>
          <leafValues>
            -2.8243747353553772e-01 4.6385979652404785e-01</leafValues></_>
        <_>
          <internalNodes>
            0 -1 34 -2.1822769194841385e-03</internalNodes>
          <leafValues>
            6.2778550386428833e-01 -1.9237780570983887e-01</leafValues></_>
        <_>
          <internalNodes>
            0 -1 181 2.8251793701201677e-03</internalNodes>
          <leafValues>
            1.5460211038589478e-01 -9.1435235738754272e-01</leafValues></_>
        <_>
          <internalNodes>
            0 -1 55 -1.5150450635701418e-03</internalNodes>
          <leafValues>
            4.7330564260482788e-01 -2.6786631345748901e-01</leafValues></_>
        <_>
          <internalNodes>
            0 -1 47 1.0113432072103024e-02</internalNodes>
          <leafValues>
            -2.6916885375976562e-01 5.0850301980972290e-01</leafValues></_></weakClassifiers></_>
    <!-- stage 7 -->
    <_>
      <maxWeakCount>19</maxWeakCount>
      <stageThreshold>-4.7040480375289917e-01</stageThreshold>
      <weakClassifiers>
        <_>
          <internalNodes>
            0 -1 194 4.5889383181929588e-03</internalNodes>
          <leafValues>
            4.2882722616195679e-01 -9.5180720090866089e-01</leafValues></_>
        <_>
          <internalNodes>
            0 -1 250 -2.6551554910838604e-03</internalNodes>
          <leafValues>
            4.6299862861633301e-01 -3.0147731304168701e-01</leafValues></_>
        <_>
          <internalNodes>
            0 -1 163 -2.3781098425388336e-03</internalNodes>
          <leafValues>
            -6.6652613878250122e-01 1.6599883139133453e-01</leafValues></_>
        <_>
          <internalNodes>
            0 -1 53 -2.1634898148477077e-03</internalNodes>
          <leafValues>
            2.8429743647575378e-01 -4.1654932498931885e-01</leafValues></_>
        <_>
          <internalNodes>
            0 -1 84 5.8216799516230822e-04</internalNodes>
          <leafValues>
            1.7076215147972107e-01 -6.0067003965377808e-01</leafValues></_>
        <_>
          <internalNodes>
            0 -1 235 -1.3491356745362282e-02</internalNodes>
          <leafValues>
            5.0001412630081177e-01 -2.4192355573177338e-01</leafValues></_>
        <_>
          <internalNodes>
            0 -1 60 -7.5100213289260864e-02</internalNodes>
          <leafValues>
            6.9010651111602783e-01 -1.7810225486755371e-01</leafValues></_>
        <_>
          <internalNodes>
            0 -1 188 9.7076715901494026e-03</internalNodes>
          <leafValues>
            -4.1611903905868530e-01 2.8606992959976196e-01</leafValues></_>
        <_>
          <internalNodes>
            0 -1 74 1.7727249360177666e-04</internalNodes>
          <leafValues>
            1.1798767000436783e-01 -9.3656545877456665e-01</leafValues></_>
        <_>
          <internalNodes>
            0 -1 58 -5.8649964630603790e-03</internalNodes>
          <leafValues>
            3.6164513230323792e-01 -3.5790935158729553e-01</leafValues></_>
        <_>
          <internalNodes>
            0 -1 30 -1.4760524500161409e-03</internalNodes>
          <leafValues>
            7.3755109310150146e-01 -1.3704529404640198e-01</leafValues></_>
        <_>
          <internalNodes>
            0 -1 109 2.4336059577763081e-03</internalNodes>
          <leafValues>
            1.6034455597400665e-01 -9.4367527961730957e-01</leafValues></_>
        <_>
          <internalNodes>
            0 -1 8 3.9099968969821930e-02</internalNodes>
          <leafValues>
            -2.0268742740154266e-01 6.3003313541412354e-01</leafValues></_>
        <_>
          <internalNodes>
            0 -1 253 -2.1912441588938236e-03</internalNodes>
          <leafValues>
            5.7633459568023682e-01 -2.0555044710636139e-01</leafValues></_>
        <_>
          <internalNodes>
            0 -1 252 1.8871942302212119e-03</internalNodes>
          <leafValues>
            -2.4772110581398010e-01 4.9490261077880859e-01</leafValues></_>
        <_>
          <internalNodes>
            0 -1 71 -1.0342297609895468e-03</internalNodes>
          <leafValues>
            -6.9377213716506958e-01 1.8781845271587372e-01</leafValues></_>
        <_>
          <internalNodes>
            0 -1 236 4.4649820774793625e-03</internalNodes>
          <leafValues>
            -3.5054188966751099e-01 3.0628061294555664e-01</leafValues></_>
        <_>
          <internalNodes>
            0 -1 249 -6.0367835685610771e-03</internalNodes>
          <leafValues>
            6.4974051713943481e-01 -1.7764228582382202e-01</leafValues></_>
        <_>
          <internalNodes>
            0 -1 91 1.3432187959551811e-02</internalNodes>
          <leafValues>
            1.4342452585697174e-01 -8.9747595787048340e-01</leafValues></_></weakClassifiers></_>
    <!-- stage 8 -->
    <_>
      <maxWeakCount>20</maxWeakCount>
      <stageThreshold>-4.2334666848182678e-01</stageThreshold>
      <weakClassifiers>
        <_>
          <internalNodes>
            0 -1 120 -9.7345217363908887e-04</internalNodes>
          <leafValues>
            -4.0196079015731812e-01 4.8393574357032776e-01</leafValues></_>
        <_>
          <internalNodes>
            0 -1 80 6.0823247767984867e-03</internalNodes>
          <leafValues>
            -2.5402474403381348e-01 5.0714957714080811e-01</leafValues></_>
        <_>
          <internalNodes>
            0 -1 207 -1.0406518122181296e-03</internalNodes>
          <leafValues>
            1.4445665478706360e-01 -7.6747131347656250e-01</leafValues></_>
        <_>
          <internalNodes>
            0 -1 219 1.2260393705219030e-03</internalNodes>
          <leafValues>
            -2.2932383418083191e-01 4.2557695508003235e-01</leafValues></_>
        <_>
          <internalNodes>
            0 -1 247 -3.4469733946025372e-03</internalNodes>
          <leafValues>
            4.6188664436340332e-01 -2.2546230256557465e-01</leafValues></_>
        <_>
          <internalNodes>
            0 -1 243 5.9676547534763813e-03</internalNodes>
          <leafValues>
            -1.9699470698833466e-01 5.4924935102462769e-01</leafValues></_>
        <_>
          <internalNodes>
            0 -1 98 -1.2670483556576073e-04</internalNodes>
          <leafValues>
            2.1869677305221558e-01 -5.6871050596237183e-01</leafValues></_>
        <_>
          <internalNodes>
            0 -1 13 4.6929991804063320e-03</internalNodes>
          <leafValues>
            -2.8613567352294922e-01 3.3364376425743103e-01</leafValues></_>
        <_>
          <internalNodes>
            0 -1 61 1.7272988334298134e-02</internalNodes>
          <leafValues>
            1.3341324031352997e-01 -6.5462595224380493e-01</leafValues></_>
        <_>
          <internalNodes>
            0 -1 192 -8.2157447468489408e-04</internalNodes>
          <leafValues>
            -9.3642622232437134e-01 9.3865022063255310e-02</leafValues></_>
        <_>
          <internalNodes>
            0 -1 113 2.2182506509125233e-03</internalNodes>
          <leafValues>
            -1.7445965111255646e-01 6.1905705928802490e-01</leafValues></_>
        <_>
          <internalNodes>
            0 -1 78 -6.1046155169606209e-03</internalNodes>
          <leafValues>
            6.6775029897689819e-01 -1.5130701661109924e-01</leafValues></_>
        <_>
          <internalNodes>
            0 -1 213 -1.4496791663987096e-05</internalNodes>
          <leafValues>
            -5.1074486970901489e-01 2.1529050171375275e-01</leafValues></_>
        <_>
          <internalNodes>
            0 -1 155 3.8283986214082688e-05</internalNodes>
          <leafValues>
            -3.2889065146446228e-01 2.5655284523963928e-01</leafValues></_>
        <_>
          <internalNodes>
            0 -1 150 3.8626804016530514e-03</internalNodes>
          <leafValues>
            1.2739005684852600e-01 -7.1481788158416748e-01</leafValues></_>
        <_>
          <internalNodes>
            0 -1 86 -8.8413730263710022e-03</internalNodes>
          <leafValues>
            2.4661743640899658e-01 -3.6042156815528870e-01</leafValues></_>
        <_>
          <internalNodes>
            0 -1 90 -5.2858586423099041e-04</internalNodes>
          <leafValues>
            -5.5583989620208740e-01 2.0489066839218140e-01</leafValues></_>
        <_>
          <internalNodes>
            0 -1 111 2.4446278810501099e-02</internalNodes>
          <leafValues>
            -1.6505385935306549e-01 6.4807844161987305e-01</leafValues></_>
        <_>
          <internalNodes>
            0 -1 77 -2.7917854487895966e-02</internalNodes>
          <leafValues>
            6.1417609453201294e-01 -1.5902353823184967e-01</leafValues></_>
        <_>
          <internalNodes>
            0 -1 255 -9.5559726469218731e-04</internalNodes>
          <leafValues>
            -5.4457271099090576e-01 2.0330043137073517e-01</leafValues></_></weakClassifiers></_>
    <!-- stage 9 -->
    <_>
      <maxWeakCount>23</maxWeakCount>
      <stageThreshold>-4.8292279243469238e-01</stageThreshold>
      <weakClassifiers>
        <_>
          <internalNodes>
            0 -1 69 -1.1578108184039593e-02</internalNodes>
          <leafValues>
            -7.6744186878204346e-01 4.1831240057945251e-01</leafValues></_>
        <_>
          <internalNodes>
            0 -1 40 -1.4047159347683191e-03</internalNodes>
          <leafValues>
            3.2763025164604187e-01 -4.0245673060417175e-01</leafValues></_>
        <_>
          <internalNodes>
            0 -1 212 1.0569044388830662e-03</internalNodes>
          <leafValues>
            -3.5588997602462769e-01 2.6457604765892029e-01</leafValues></_>
        <_>
          <internalNodes>
            0 -1 124 2.4345130659639835e-03</internalNodes>
          <leafValues>
            1.2878160178661346e-01 -6.7956691980361938e-01</leafValues></_>
        <_>
          <internalNodes>
            0 -1 50 1.0737597942352295e-02</internalNodes>
          <leafValues>
            -1.2785384058952332e-01 7.3057073354721069e-01</leafValues></_>
        <_>
          <internalNodes>
            0 -1 10 -2.0218542777001858e-03</internalNodes>
          <leafValues>
            4.7499844431877136e-01 -2.0154581964015961e-01</leafValues></_>
        <_>
          <internalNodes>
            0 -1 165 2.1450794301927090e-03</internalNodes>
          <leafValues>
            -3.7771984934806824e-01 2.5364819169044495e-01</leafValues></_>
        <_>
          <internalNodes>
            0 -1 222 1.5416370704770088e-02</internalNodes>
          <leafValues>
            -2.6996141672134399e-01 3.2431203126907349e-01</leafValues></_>
        <_>
          <internalNodes>
            0 -1 95 -5.2588898688554764e-04</internalNodes>
          <leafValues>
            -6.0555541515350342e-01 1.3658732175827026e-01</leafValues></_>
        <_>
          <internalNodes>
            0 -1 134 -6.8415738642215729e-03</internalNodes>
          <leafValues>
            3.4827032685279846e-01 -2.9920339584350586e-01</leafValues></_>
        <_>
          <internalNodes>
            0 -1 205 1.9523804076015949e-03</internalNodes>
          <leafValues>
            1.3024298846721649e-01 -7.0794707536697388e-01</leafValues></_>
        <_>
          <internalNodes>
            0 -1 138 1.6908764373511076e-03</internalNodes>
          <leafValues>
            -3.4992492198944092e-01 2.5034818053245544e-01</leafValues></_>
        <_>
          <internalNodes>
            0 -1 228 -5.8819665573537350e-03</internalNodes>
          <leafValues>
            4.7498002648353577e-01 -2.0453310012817383e-01</leafValues></_>
        <_>
          <internalNodes>
            0 -1 67 -4.8695188015699387e-03</internalNodes>
          <leafValues>
            4.6982252597808838e-01 -2.1181741356849670e-01</leafValues></_>
        <_>
          <internalNodes>
            0 -1 73 6.0445796698331833e-03</internalNodes>
          <leafValues>
            1.1316550523042679e-01 -8.4079355001449585e-01</leafValues></_>
        <_>
          <internalNodes>
            0 -1 76 4.6693574404343963e-04</internalNodes>
          <leafValues>
            -2.1233512461185455e-01 4.8770511150360107e-01</leafValues></_>
        <_>
          <internalNodes>
            0 -1 46 5.4611582309007645e-03</internalNodes>
          <leafValues>
            -1.3851831853389740e-01 5.8829194307327271e-01</leafValues></_>
        <_>
          <internalNodes>
            0 -1 125 -4.7313078539445996e-05</internalNodes>
          <leafValues>
            -3.3632874488830566e-01 2.5824609398841858e-01</leafValues></_>
        <_>
          <internalNodes>
            0 -1 51 -2.2151137236505747e-03</internalNodes>
          <leafValues>
            3.9517933130264282e-01 -2.2341194748878479e-01</leafValues></_>
        <_>
          <internalNodes>
            0 -1 233 -5.5650919675827026e-03</internalNodes>
          <leafValues>
            4.4931954145431519e-01 -2.2644935548305511e-01</leafValues></_>
        <_>
          <internalNodes>
            0 -1 129 4.2737673968076706e-02</internalNodes>
          <leafValues>
            1.1921761929988861e-01 -8.0199968814849854e-01</leafValues></_>
        <_>
          <internalNodes>
            0 -1 246 3.3065928146243095e-03</internalNodes>
          <leafValues>
            -2.1064455807209015e-01 4.1666942834854126e-01</leafValues></_>
        <_>
          <internalNodes>
            0 -1 160 2.7669863775372505e-03</internalNodes>
          <leafValues>
            1.2869673967361450e-01 -7.6983910799026489e-01</leafValues></_></weakClassifiers></_>
    <!-- stage 10 -->
    <_>
      <maxWeakCount>26</maxWeakCount>
      <stageThreshold>-5.2357488870620728e-01</stageThreshold>
      <weakClassifiers>
        <_>
          <internalNodes>
            0 -1 201 4.2387554422020912e-03</internalNodes>
          <leafValues>
            -8.0213904380798340e-02 5.2058112621307373e-01</leafValues></_>
        <_>
          <internalNodes>
            0 -1 41 -8.8704319205135107e-04</internalNodes>
          <leafValues>
            2.9472815990447998e-01 -3.1115749478340149e-01</leafValues></_>
        <_>
          <internalNodes>
            0 -1 140 -3.0850314942654222e-05</internalNodes>
          <leafValues>
            1.4978450536727905e-01 -5.9652590751647949e-01</leafValues></_>
        <_>
          <internalNodes>
            0 -1 130 -8.7517872452735901e-03</internalNodes>
          <leafValues>
            4.1053095459938049e-01 -2.2042351961135864e-01</leafValues></_>
        <_>
          <internalNodes>
            0 -1 6 3.3423647284507751e-02</internalNodes>
          <leafValues>
            9.9736675620079041e-02 -8.3652627468109131e-01</leafValues></_>
        <_>
          <internalNodes>
            0 -1 216 -4.1000633500516415e-03</internalNodes>
          <leafValues>
            3.4711426496505737e-01 -2.4459213018417358e-01</leafValues></_>
        <_>
          <internalNodes>
            0 -1 168 7.6622178312391043e-04</internalNodes>
          <leafValues>
            -5.7142198085784912e-01 1.7052917182445526e-01</leafValues></_>
        <_>
          <internalNodes>
            0 -1 85 2.4815060896798968e-04</internalNodes>
          <leafValues>
            1.2014970928430557e-01 -5.1273679733276367e-01</leafValues></_>
        <_>
          <internalNodes>
            0 -1 100 2.9118144884705544e-03</internalNodes>
          <leafValues>
            -2.2788479924201965e-01 3.6867707967758179e-01</leafValues></_>
        <_>
          <internalNodes>
            0 -1 127 3.4260195679962635e-03</internalNodes>
          <leafValues>
            -1.4045414328575134e-01 4.5046931505203247e-01</leafValues></_>
        <_>
          <internalNodes>
            0 -1 257 1.0160454548895359e-02</internalNodes>
          <leafValues>
            8.8906250894069672e-02 -6.9994843006134033e-01</leafValues></_>
        <_>
          <internalNodes>
            0 -1 170 5.8981934562325478e-03</internalNodes>
          <leafValues>
            9.4673477113246918e-02 -7.0358258485794067e-01</leafValues></_>
        <_>
          <internalNodes>
            0 -1 31 -1.5689171850681305e-02</internalNodes>
          <leafValues>
            4.9489909410476685e-01 -1.7125044763088226e-01</leafValues></_>
        <_>
          <internalNodes>
            0 -1 184 7.6366690336726606e-05</internalNodes>
          <leafValues>
            1.1816219985485077e-01 -7.3553651571273804e-01</leafValues></_>
        <_>
          <internalNodes>
            0 -1 199 1.5286216512322426e-04</internalNodes>
          <leafValues>
            -2.7720308303833008e-01 2.7696207165718079e-01</leafValues></_>
        <_>
          <internalNodes>
            0 -1 70 -4.6254239976406097e-02</internalNodes>
          <leafValues>
            6.4447289705276489e-01 -1.1888638138771057e-01</leafValues></_>
        <_>
          <internalNodes>
            0 -1 220 -2.1836444735527039e-02</internalNodes>
          <leafValues>
            4.7762775421142578e-01 -1.6452980041503906e-01</leafValues></_>
        <_>
          <internalNodes>
            0 -1 240 2.2447672672569752e-03</internalNodes>
          <leafValues>
            -1.8883475661277771e-01 4.6243590116500854e-01</leafValues></_>
        <_>
          <internalNodes>
            0 -1 225 1.6128260176628828e-03</internalNodes>
          <leafValues>
            1.2454751878976822e-01 -7.5566983222961426e-01</leafValues></_>
        <_>
          <internalNodes>
            0 -1 187 3.6896421079291031e-05</internalNodes>
          <leafValues>
            -3.0968508124351501e-01 2.6186269521713257e-01</leafValues></_>
        <_>
          <internalNodes>
            0 -1 48 -3.0822469852864742e-03</internalNodes>
          <leafValues>
            3.0349701642990112e-01 -2.5435212254524231e-01</leafValues></_>
        <_>
          <internalNodes>
            0 -1 223 1.1627038475126028e-03</internalNodes>
          <leafValues>
            -3.1199368834495544e-01 3.0282306671142578e-01</leafValues></_>
        <_>
          <internalNodes>
            0 -1 75 -1.4659641310572624e-03</internalNodes>
          <leafValues>
            -7.4983149766921997e-01 1.1573477089405060e-01</leafValues></_>
        <_>
          <internalNodes>
            0 -1 167 2.6780385524034500e-03</internalNodes>
          <leafValues>
            -4.2554581165313721e-01 1.7127965390682220e-01</leafValues></_>
        <_>
          <internalNodes>
            0 -1 38 -7.7925394289195538e-03</internalNodes>
          <leafValues>
            6.7300689220428467e-01 -1.2342318892478943e-01</leafValues></_>
        <_>
          <internalNodes>
            0 -1 151 -4.3638038914650679e-04</internalNodes>
          <leafValues>
            -6.7002540826797485e-01 1.3217525184154510e-01</leafValues></_></weakClassifiers></_>
    <!-- stage 11 -->
    <_>
      <maxWeakCount>26</maxWeakCount>
      <stageThreshold>-3.5888156294822693e-01</stageThreshold>
      <weakClassifiers>
        <_>
          <internalNodes>
            0 -1 172 -3.1676003709435463e-03</internalNodes>
          <leafValues>
            -6.1904764175415039e-01 4.2465752363204956e-01</leafValues></_>
        <_>
          <internalNodes>
            0 -1 190 1.7348639667034149e-03</internalNodes>
          <leafValues>
            -3.5189938545227051e-01 3.4872099757194519e-01</leafValues></_>
        <_>
          <internalNodes>
            0 -1 171 -7.5886696577072144e-03</internalNodes>
          <leafValues>
            -8.7395125627517700e-01 5.7949349284172058e-02</leafValues></_>
        <_>
          <internalNodes>
            0 -1 1 9.6744690090417862e-03</internalNodes>
          <leafValues>
            1.1798875778913498e-01 -6.2048560380935669e-01</leafValues></_>
        <_>
          <internalNodes>
            0 -1 148 3.8479075301438570e-03</internalNodes>
          <leafValues>
            -2.7228310704231262e-01 2.9263350367546082e-01</leafValues></_>
        <_>
          <internalNodes>
            0 -1 27 -8.9348033070564270e-03</internalNodes>
          <leafValues>
            6.4610499143600464e-01 -1.3796931505203247e-01</leafValues></_>
        <_>
          <internalNodes>
            0 -1 101 9.5397792756557465e-03</internalNodes>
          <leafValues>
            -5.4085266590118408e-01 1.5416267514228821e-01</leafValues></_>
        <_>
          <internalNodes>
            0 -1 115 -3.0002743005752563e-03</internalNodes>
          <leafValues>
            1.5076458454132080e-01 -5.5392742156982422e-01</leafValues></_>
        <_>
          <internalNodes>
            0 -1 126 5.3567171562463045e-05</internalNodes>
          <leafValues>
            -3.4569495916366577e-01 2.6453500986099243e-01</leafValues></_>
        <_>
          <internalNodes>
            0 -1 128 5.6409295648336411e-03</internalNodes>
          <leafValues>
            -1.4338982105255127e-01 5.6504982709884644e-01</leafValues></_>
        <_>
          <internalNodes>
            0 -1 107 -1.3322620652616024e-03</internalNodes>
          <leafValues>
            -4.6933281421661377e-01 1.8664707243442535e-01</leafValues></_>
        <_>
          <internalNodes>
            0 -1 234 8.4793148562312126e-04</internalNodes>
          <leafValues>
            -4.6475452184677124e-01 1.8235822021961212e-01</leafValues></_>
        <_>
          <internalNodes>
            0 -1 52 8.6406053742393851e-04</internalNodes>
          <leafValues>
            -3.1633523106575012e-01 2.6130822300910950e-01</leafValues></_>
        <_>
          <internalNodes>
            0 -1 230 1.7232625978067517e-03</internalNodes>
          <leafValues>
            -2.0940780639648438e-01 4.1025522351264954e-01</leafValues></_>
        <_>
          <internalNodes>
            0 -1 229 -1.3471340062096715e-03</internalNodes>
          <leafValues>
            5.4367399215698242e-01 -1.6262079775333405e-01</leafValues></_>
        <_>
          <internalNodes>
            0 -1 105 1.8645972013473511e-03</internalNodes>
          <leafValues>
            -3.0004328489303589e-01 2.7588725090026855e-01</leafValues></_>
        <_>
          <internalNodes>
            0 -1 226 6.2595121562480927e-05</internalNodes>
          <leafValues>
            1.1087328195571899e-01 -7.0706349611282349e-01</leafValues></_>
        <_>
          <internalNodes>
            0 -1 145 -8.3114337176084518e-03</internalNodes>
          <leafValues>
            6.0134679079055786e-01 -1.6363392770290375e-01</leafValues></_>
        <_>
          <internalNodes>
            0 -1 0 7.1780006692279130e-05</internalNodes>
          <leafValues>
            2.5023084878921509e-01 -3.3957368135452271e-01</leafValues></_>
        <_>
          <internalNodes>
            0 -1 112 5.8832491049543023e-04</internalNodes>
          <leafValues>
            -1.5843267738819122e-01 5.1302486658096313e-01</leafValues></_>
        <_>
          <internalNodes>
            0 -1 208 3.1517916359007359e-03</internalNodes>
          <leafValues>
            9.3266829848289490e-02 -9.6468919515609741e-01</leafValues></_>
        <_>
          <internalNodes>
            0 -1 15 -1.2497459538280964e-03</internalNodes>
          <leafValues>
            4.5194151997566223e-01 -1.9892179965972900e-01</leafValues></_>
        <_>
          <internalNodes>
            0 -1 44 1.5241275541484356e-03</internalNodes>
          <leafValues>
            -1.5458136796951294e-01 4.9888187646865845e-01</leafValues></_>
        <_>
          <internalNodes>
            0 -1 200 9.0229581110179424e-04</internalNodes>
          <leafValues>
            -1.5262609720230103e-01 4.6707195043563843e-01</leafValues></_>
        <_>
          <internalNodes>
            0 -1 66 9.4670749967917800e-04</internalNodes>
          <leafValues>
            -1.7312717437744141e-01 5.0668519735336304e-01</leafValues></_>
        <_>
          <internalNodes>
            0 -1 99 -1.8886569887399673e-04</internalNodes>
          <leafValues>
            2.1682329475879669e-01 -3.8590946793556213e-01</leafValues></_></weakClassifiers></_>
    <!-- stage 12 -->
    <_>
      <maxWeakCount>29</maxWeakCount>
      <stageThreshold>-2.9084056615829468e-01</stageThreshold>
      <weakClassifiers>
        <_>
          <internalNodes>
            0 -1 65 2.3272214457392693e-03</internalNodes>
          <leafValues>
            3.7453182041645050e-02 5.7057058811187744e-01</leafValues></_>
        <_>
          <internalNodes>
            0 -1 4 -3.0994880199432373e-01</internalNodes>
          <leafValues>
            2.5080746412277222e-01 -3.1943643093109131e-01</leafValues></_>
        <_>
          <internalNodes>
            0 -1 29 -7.6701911166310310e-04</internalNodes>
          <leafValues>
            3.7187752127647400e-01 -1.6036902368068695e-01</leafValues></_>
        <_>
          <internalNodes>
            0 -1 26 2.4704569950699806e-03</internalNodes>
          <leafValues>
            -2.4425682425498962e-01 3.3554133772850037e-01</leafValues></_>
        <_>
          <internalNodes>
            0 -1 68 2.9500375967472792e-04</internalNodes>
          <leafValues>
            1.4596265554428101e-01 -6.6048407554626465e-01</leafValues></_>
        <_>
          <internalNodes>
            0 -1 254 4.1788509115576744e-03</internalNodes>
          <leafValues>
            -1.3216148316860199e-01 5.0346177816390991e-01</leafValues></_>
        <_>
          <internalNodes>
            0 -1 144 8.5382541874423623e-04</internalNodes>
          <leafValues>
            9.4670370221138000e-02 -6.0550206899642944e-01</leafValues></_>
        <_>
          <internalNodes>
            0 -1 108 4.7513627214357257e-04</internalNodes>
          <leafValues>
            -2.5341057777404785e-01 3.0338740348815918e-01</leafValues></_>
        <_>
          <internalNodes>
            0 -1 21 -2.2919462062418461e-03</internalNodes>
          <leafValues>
            3.1013295054435730e-01 -2.6146900653839111e-01</leafValues></_>
        <_>
          <internalNodes>
            0 -1 79 3.1248198356479406e-03</internalNodes>
          <leafValues>
            -2.4725058674812317e-01 3.0959126353263855e-01</leafValues></_>
        <_>
          <internalNodes>
            0 -1 173 3.4371139481663704e-03</internalNodes>
          <leafValues>
            9.2918261885643005e-02 -7.1795016527175903e-01</leafValues></_>
        <_>
          <internalNodes>
            0 -1 191 -3.2046905835159123e-04</internalNodes>
          <leafValues>
            -8.1480884552001953e-01 7.3684804141521454e-02</leafValues></_>
        <_>
          <internalNodes>
            0 -1 114 3.7542846985161304e-03</internalNodes>
          <leafValues>
            -1.9551523029804230e-01 3.9022427797317505e-01</leafValues></_>
        <_>
          <internalNodes>
            0 -1 189 5.4344651289284229e-04</internalNodes>
          <leafValues>
            -4.0132662653923035e-01 2.0897844433784485e-01</leafValues></_>
        <_>
          <internalNodes>
            0 -1 174 1.7260229215025902e-03</internalNodes>
          <leafValues>
            -2.2540991008281708e-01 3.2272854447364807e-01</leafValues></_>
        <_>
          <internalNodes>
            0 -1 204 -3.8136691728141159e-05</internalNodes>
          <leafValues>
            -2.8867611289024353e-01 2.6529526710510254e-01</leafValues></_>
        <_>
          <internalNodes>
            0 -1 183 -1.0744218016043305e-03</internalNodes>
          <leafValues>
            2.5224873423576355e-01 -3.1477195024490356e-01</leafValues></_>
        <_>
          <internalNodes>
            0 -1 162 9.9789118394255638e-04</internalNodes>
          <leafValues>
            -2.6994532346725464e-01 3.0947354435920715e-01</leafValues></_>
        <_>
          <internalNodes>
            0 -1 57 -1.7356788739562035e-03</internalNodes>
          <leafValues>
            4.1048008203506470e-01 -1.6658349335193634e-01</leafValues></_>
        <_>
          <internalNodes>
            0 -1 82 5.5388240143656731e-03</internalNodes>
          <leafValues>
            7.5100101530551910e-02 -9.7308719158172607e-01</leafValues></_>
        <_>
          <internalNodes>
            0 -1 63 -3.6318926140666008e-03</internalNodes>
          <leafValues>
            6.8407529592514038e-01 -1.2300772964954376e-01</leafValues></_>
        <_>
          <internalNodes>
            0 -1 23 -1.4760504709556699e-03</internalNodes>
          <leafValues>
            3.3912450075149536e-01 -2.2138968110084534e-01</leafValues></_>
        <_>
          <internalNodes>
            0 -1 209 1.9545797258615494e-03</internalNodes>
          <leafValues>
            -1.6176219284534454e-01 4.3667694926261902e-01</leafValues></_>
        <_>
          <internalNodes>
            0 -1 185 -1.9326957044540904e-05</internalNodes>
          <leafValues>
            1.0725564509630203e-01 -6.6624879837036133e-01</leafValues></_>
        <_>
          <internalNodes>
            0 -1 110 -2.0052728359587491e-04</internalNodes>
          <leafValues>
            -3.7677925825119019e-01 1.8771393597126007e-01</leafValues></_>
        <_>
          <internalNodes>
            0 -1 229 1.2616537278518081e-03</internalNodes>
          <leafValues>
            -1.6798239946365356e-01 4.1769766807556152e-01</leafValues></_>
        <_>
          <internalNodes>
            0 -1 149 -1.1951519991271198e-04</internalNodes>
          <leafValues>
            -4.6280008554458618e-01 1.5477144718170166e-01</leafValues></_>
        <_>
          <internalNodes>
            0 -1 81 7.7320949640125036e-04</internalNodes>
          <leafValues>
            -1.7921897768974304e-01 3.8189384341239929e-01</leafValues></_>
        <_>
          <internalNodes>
            0 -1 20 -2.9517472721636295e-03</internalNodes>
          <leafValues>
            4.9947306513786316e-01 -1.5757502615451813e-01</leafValues></_></weakClassifiers></_>
    <!-- stage 13 -->
    <_>
      <maxWeakCount>30</maxWeakCount>
      <stageThreshold>-5.3794163465499878e-01</stageThreshold>
      <weakClassifiers>
        <_>
          <internalNodes>
            0 -1 132 -1.7412777524441481e-03</internalNodes>
          <leafValues>
            -3.0769231915473938e-01 4.4793713092803955e-01</leafValues></_>
        <_>
          <internalNodes>
            0 -1 203 3.6614066921174526e-03</internalNodes>
          <leafValues>
            -1.3509914278984070e-01 4.2303207516670227e-01</leafValues></_>
        <_>
          <internalNodes>
            0 -1 154 3.0304281608550809e-05</internalNodes>
          <leafValues>
            -4.5204314589500427e-01 1.5857131779193878e-01</leafValues></_>
        <_>
          <internalNodes>
            0 -1 14 1.4073383808135986e-01</internalNodes>
          <leafValues>
            -1.0256174951791763e-01 7.6227962970733643e-01</leafValues></_>
        <_>
          <internalNodes>
            0 -1 136 -1.0899906978011131e-02</internalNodes>
          <leafValues>
            3.1891393661499023e-01 -2.6268425583839417e-01</leafValues></_>
        <_>
          <internalNodes>
            0 -1 218 7.8046193812042475e-04</internalNodes>
          <leafValues>
            -2.3910573124885559e-01 2.9718223214149475e-01</leafValues></_>
        <_>
          <internalNodes>
            0 -1 104 -1.0943000670522451e-03</internalNodes>
          <leafValues>
            -6.3820058107376099e-01 7.8266814351081848e-02</leafValues></_>
        <_>
          <internalNodes>
            0 -1 196 -2.5124207604676485e-04</internalNodes>
          <leafValues>
            8.2617439329624176e-02 -8.6282992362976074e-01</leafValues></_>
        <_>
          <internalNodes>
            0 -1 9 -1.2822067365050316e-03</internalNodes>
          <leafValues>
            4.3816363811492920e-01 -1.6546951234340668e-01</leafValues></_>
        <_>
          <internalNodes>
            0 -1 12 6.0551892966032028e-03</internalNodes>
          <leafValues>
            -3.1025195121765137e-01 2.6631322503089905e-01</leafValues></_>
        <_>
          <internalNodes>
            0 -1 45 -4.8532909713685513e-03</internalNodes>
          <leafValues>
            4.0176600217819214e-01 -1.8692201375961304e-01</leafValues></_>
        <_>
          <internalNodes>
            0 -1 244 -1.0732489172369242e-03</internalNodes>
          <leafValues>
            4.3152353167533875e-01 -1.4468742907047272e-01</leafValues></_>
        <_>
          <internalNodes>
            0 -1 147 5.7869143784046173e-03</internalNodes>
          <leafValues>
            -1.1287058144807816e-01 6.0099059343338013e-01</leafValues></_>
        <_>
          <internalNodes>
            0 -1 87 1.6881152987480164e-02</internalNodes>
          <leafValues>
            8.4917418658733368e-02 -9.0742051601409912e-01</leafValues></_>
        <_>
          <internalNodes>
            0 -1 131 -6.7052125814370811e-05</internalNodes>
          <leafValues>
            -5.5125290155410767e-01 9.8790228366851807e-02</leafValues></_>
        <_>
          <internalNodes>
            0 -1 16 -1.1009797453880310e-02</internalNodes>
          <leafValues>
            -4.9151399731636047e-01 1.4474114775657654e-01</leafValues></_>
        <_>
          <internalNodes>
            0 -1 256 -2.9499980155378580e-04</internalNodes>
          <leafValues>
            3.8485604524612427e-01 -1.8079382181167603e-01</leafValues></_>
        <_>
          <internalNodes>
            0 -1 238 -1.6244890866801143e-04</internalNodes>
          <leafValues>
            1.5438988804817200e-01 -5.0648325681686401e-01</leafValues></_>
        <_>
          <internalNodes>
            0 -1 93 8.5130904335528612e-04</internalNodes>
          <leafValues>
            -2.2911290824413300e-01 3.8770905137062073e-01</leafValues></_>
        <_>
          <internalNodes>
            0 -1 175 1.3090709690004587e-03</internalNodes>
          <leafValues>
            -1.7484022676944733e-01 3.7421455979347229e-01</leafValues></_>
        <_>
          <internalNodes>
            0 -1 161 -1.9448993043624796e-05</internalNodes>
          <leafValues>
            1.4649216830730438e-01 -4.8980793356895447e-01</leafValues></_>
        <_>
          <internalNodes>
            0 -1 142 1.3658720999956131e-03</internalNodes>
          <leafValues>
            1.4654193818569183e-01 -4.4758975505828857e-01</leafValues></_>
        <_>
          <internalNodes>
            0 -1 242 2.3587245959788561e-03</internalNodes>
          <leafValues>
            1.0424751043319702e-01 -6.2761431932449341e-01</leafValues></_>
        <_>
          <internalNodes>
            0 -1 28 -2.9849386774003506e-03</internalNodes>
          <leafValues>
            5.3064036369323730e-01 -1.3864988088607788e-01</leafValues></_>
        <_>
          <internalNodes>
            0 -1 35 1.5005773305892944e-01</internalNodes>
          <leafValues>
            1.2693971395492554e-01 -5.8076184988021851e-01</leafValues></_>
        <_>
          <internalNodes>
            0 -1 118 -1.9663766026496887e-02</internalNodes>
          <leafValues>
            2.8441882133483887e-01 -2.5253444910049438e-01</leafValues></_>
        <_>
          <internalNodes>
            0 -1 217 1.5986655489541590e-04</internalNodes>
          <leafValues>
            -2.5776749849319458e-01 2.7722612023353577e-01</leafValues></_>
        <_>
          <internalNodes>
            0 -1 42 4.9391121137887239e-04</internalNodes>
          <leafValues>
            -1.5046435594558716e-01 4.2577546834945679e-01</leafValues></_>
        <_>
          <internalNodes>
            0 -1 198 7.7211588621139526e-02</internalNodes>
          <leafValues>
            1.1342700570821762e-01 -6.2025618553161621e-01</leafValues></_>
        <_>
          <internalNodes>
            0 -1 119 1.6494762152433395e-02</internalNodes>
          <leafValues>
            -4.2381936311721802e-01 1.8460276722908020e-01</leafValues></_></weakClassifiers></_></stages>
  <features>
    <_>
      <rects>
        <_>
          0 0 3 1 -1.</_>
        <_>
          1 0 1 1 3.</_></rects>
      <tilted>0</tilted></_>
    <_>
      <rects>
        <_>
          0 0 1 10 -1.</_>
        <_>
          0 5 1 5 2.</_></rects>
      <tilted>0</tilted></_>
    <_>
      <rects>
        <_>
          0 1 8 6 -1.</_>
        <_>
          0 1 4 3 2.</_>
        <_>
          4 4 4 3 2.</_></rects>
      <tilted>0</tilted></_>
    <_>
      <rects>
        <_>
          0 3 8 13 -1.</_>
        <_>
          4 3 4 13 2.</_></rects>
      <tilted>0</tilted></_>
    <_>
      <rects>
        <_>
          0 4 20 18 -1.</_>
        <_>
          0 13 20 9 2.</_></rects>
      <tilted>0</tilted></_>
    <_>
      <rects>
        <_>
          0 5 9 10 -1.</_>
        <_>
          3 5 3 10 3.</_></rects>
      <tilted>0</tilted></_>
    <_>
      <rects>
        <_>
          0 5 12 6 -1.</_>
        <_>
          0 8 12 3 2.</_></rects>
      <tilted>0</tilted></_>
    <_>
      <rects>
        <_>
          0 6 6 4 -1.</_>
        <_>
          3 6 3 4 2.</_></rects>
      <tilted>0</tilted></_>
    <_>
      <rects>
        <_>
          0 8 6 13 -1.</_>
        <_>
          2 8 2 13 3.</_></rects>
      <tilted>0</tilted></_>
    <_>
      <rects>
        <_>
          0 9 2 6 -1.</_>
        <_>
          1 9 1 6 2.</_></rects>
      <tilted>0</tilted></_>
    <_>
      <rects>
        <_>
          0 10 3 2 -1.</_>
        <_>
          1 10 1 2 3.</_></rects>
      <tilted>0</tilted></_>
    <_>
      <rects>
        <_>
          0 10 4 2 -1.</_>
        <_>
          2 10 2 2 2.</_></rects>
      <tilted>0</tilted></_>
    <_>
      <rects>
        <_>
          0 10 4 3 -1.</_>
        <_>
          2 10 2 3 2.</_></rects>
      <tilted>0</tilted></_>
    <_>
      <rects>
        <_>
          0 10 6 4 -1.</_>
        <_>
          2 10 2 4 3.</_></rects>
      <tilted>0</tilted></_>
    <_>
      <rects>
        <_>
          0 11 15 9 -1.</_>
        <_>
          5 11 5 9 3.</_></rects>
      <tilted>0</tilted></_>
    <_>
      <rects>
        <_>
          0 14 4 2 -1.</_>
        <_>
          0 14 2 1 2.</_>
        <_>
          2 15 2 1 2.</_></rects>
      <tilted>0</tilted></_>
    <_>
      <rects>
        <_>
          0 21 14 1 -1.</_>
        <_>
          7 21 7 1 2.</_></rects>
      <tilted>0</tilted></_>
    <_>
      <rects>
        <_>
          1 1 4 10 -1.</_>
        <_>
          1 1 2 5 2.</_>
        <_>
          3 6 2 5 2.</_></rects>
      <tilted>0</tilted></_>
    <_>
      <rects>
        <_>
          1 2 4 8 -1.</_>
        <_>
          1 2 2 4 2.</_>
        <_>
          3 6 2 4 2.</_></rects>
      <tilted>0</tilted></_>
    <_>
      <rects>
        <_>
          1 3 4 8 -1.</_>
        <_>
          1 3 2 4 2.</_>
        <_>
          3 7 2 4 2.</_></rects>
      <tilted>0</tilted></_>
    <_>
      <rects>
        <_>
          1 3 10 2 -1.</_>
        <_>
          1 3 5 1 2.</_>
        <_>
          6 4 5 1 2.</_></rects>
      <tilted>0</tilted></_>
    <_>
      <rects>
        <_>
          1 4 9 1 -1.</_>
        <_>
          4 4 3 1 3.</_></rects>
      <tilted>0</tilted></_>
    <_>
      <rects>
        <_>
          1 4 21 1 -1.</_>
        <_>
          8 4 7 1 3.</_></rects>
      <tilted>0</tilted></_>
    <_>
      <rects>
        <_>
          1 6 6 2 -1.</_>
        <_>
          1 6 3 1 2.</_>
        <_>
          4 7 3 1 2.</_></rects>
      <tilted>0</tilted></_>
    <_>
      <rects>
        <_>
          1 7 3 1 -1.</_>
        <_>
          2 7 1 1 3.</_></rects>
      <tilted>0</tilted></_>
    <_>
      <rects>
        <_>
          1 7 2 5 -1.</_>
        <_>
          2 7 1 5 2.</_></rects>
      <tilted>0</tilted></_>
    <_>
      <rects>
        <_>
          1 7 3 5 -1.</_>
        <_>
          2 7 1 5 3.</_></rects>
      <tilted>0</tilted></_>
    <_>
      <rects>
        <_>
          1 7 3 7 -1.</_>
        <_>
          2 7 1 7 3.</_></rects>
      <tilted>0</tilted></_>
    <_>
      <rects>
        <_>
          1 8 2 8 -1.</_>
        <_>
          2 8 1 8 2.</_></rects>
      <tilted>0</tilted></_>
    <_>
      <rects>
        <_>
          1 9 3 1 -1.</_>
        <_>
          2 9 1 1 3.</_></rects>
      <tilted>0</tilted></_>
    <_>
      <rects>
        <_>
          1 13 3 1 -1.</_>
        <_>
          2 13 1 1 3.</_></rects>
      <tilted>0</tilted></_>
    <_>
      <rects>
        <_>
          1 13 6 6 -1.</_>
        <_>
          4 13 3 6 2.</_></rects>
      <tilted>0</tilted></_>
    <_>
      <rects>
        <_>
          1 13 6 9 -1.</_>
        <_>
          4 13 3 9 2.</_></rects>
      <tilted>0</tilted></_>
    <_>
      <rects>
        <_>
          1 14 4 8 -1.</_>
        <_>
          1 14 2 4 2.</_>
        <_>
          3 18 2 4 2.</_></rects>
      <tilted>0</tilted></_>
    <_>
      <rects>
        <_>
          2 1 2 10 -1.</_>
        <_>
          2 1 1 5 2.</_>
        <_>
          3 6 1 5 2.</_></rects>
      <tilted>0</tilted></_>
    <_>
      <rects>
        <_>
          2 3 20 18 -1.</_>
        <_>
          2 3 10 9 2.</_>
        <_>
          12 12 10 9 2.</_></rects>
      <tilted>0</tilted></_>
    <_>
      <rects>
        <_>
          2 4 10 4 -1.</_>
        <_>
          2 4 5 2 2.</_>
        <_>
          7 6 5 2 2.</_></rects>
      <tilted>0</tilted></_>
    <_>
      <rects>
        <_>
          2 4 18 1 -1.</_>
        <_>
          11 4 9 1 2.</_></rects>
      <tilted>0</tilted></_>
    <_>
      <rects>
        <_>
          2 4 12 9 -1.</_>
        <_>
          2 7 12 3 3.</_></rects>
      <tilted>0</tilted></_>
    <_>
      <rects>
        <_>
          2 5 3 1 -1.</_>
        <_>
          3 5 1 1 3.</_></rects>
      <tilted>0</tilted></_>
    <_>
      <rects>
        <_>
          2 5 8 2 -1.</_>
        <_>
          2 5 4 1 2.</_>
        <_>
          6 6 4 1 2.</_></rects>
      <tilted>0</tilted></_>
    <_>
      <rects>
        <_>
          2 6 6 2 -1.</_>
        <_>
          2 6 3 1 2.</_>
        <_>
          5 7 3 1 2.</_></rects>
      <tilted>0</tilted></_>
    <_>
      <rects>
        <_>
          2 10 1 3 -1.</_>
        <_>
          2 11 1 1 3.</_></rects>
      <tilted>0</tilted></_>
    <_>
      <rects>
        <_>
          2 10 2 4 -1.</_>
        <_>
          2 10 1 2 2.</_>
        <_>
          3 12 1 2 2.</_></rects>
      <tilted>0</tilted></_>
    <_>
      <rects>
        <_>
          2 12 2 6 -1.</_>
        <_>
          2 12 1 3 2.</_>
        <_>
          3 15 1 3 2.</_></rects>
      <tilted>0</tilted></_>
    <_>
      <rects>
        <_>
          2 12 6 9 -1.</_>
        <_>
          4 12 2 9 3.</_></rects>
      <tilted>0</tilted></_>
    <_>
      <rects>
        <_>
          2 14 4 6 -1.</_>
        <_>
          2 14 2 3 2.</_>
        <_>
          4 17 2 3 2.</_></rects>
      <tilted>0</tilted></_>
    <_>
      <rects>
        <_>
          3 1 6 8 -1.</_>
        <_>
          3 1 3 4 2.</_>
        <_>
          6 5 3 4 2.</_></rects>
      <tilted>0</tilted></_>
    <_>
      <rects>
        <_>
          3 3 2 10 -1.</_>
        <_>
          3 3 1 5 2.</_>
        <_>
          4 8 1 5 2.</_></rects>
      <tilted>0</tilted></_>
    <_>
      <rects>
        <_>
          3 3 4 4 -1.</_>
        <_>
          5 3 2 4 2.</_></rects>
      <tilted>0</tilted></_>
    <_>
      <rects>
        <_>
          3 3 6 4 -1.</_>
        <_>
          3 3 3 2 2.</_>
        <_>
          6 5 3 2 2.</_></rects>
      <tilted>0</tilted></_>
    <_>
      <rects>
        <_>
          3 3 8 2 -1.</_>
        <_>
          3 3 4 1 2.</_>
        <_>
          7 4 4 1 2.</_></rects>
      <tilted>0</tilted></_>
    <_>
      <rects>
        <_>
          3 4 4 3 -1.</_>
        <_>
          3 5 4 1 3.</_></rects>
      <tilted>0</tilted></_>
    <_>
      <rects>
        <_>
          3 4 8 2 -1.</_>
        <_>
          3 4 4 1 2.</_>
        <_>
          7 5 4 1 2.</_></rects>
      <tilted>0</tilted></_>
    <_>
      <rects>
        <_>
          3 4 10 2 -1.</_>
        <_>
          3 4 5 1 2.</_>
        <_>
          8 5 5 1 2.</_></rects>
      <tilted>0</tilted></_>
    <_>
      <rects>
        <_>
          3 5 4 2 -1.</_>
        <_>
          3 5 2 1 2.</_>
        <_>
          5 6 2 1 2.</_></rects>
      <tilted>0</tilted></_>
    <_>
      <rects>
        <_>
          3 9 16 8 -1.</_>
        <_>
          3 13 16 4 2.</_></rects>
      <tilted>0</tilted></_>
    <_>
      <rects>
        <_>
          3 14 2 6 -1.</_>
        <_>
          3 14 1 3 2.</_>
        <_>
          4 17 1 3 2.</_></rects>
      <tilted>0</tilted></_>
    <_>
      <rects>
        <_>
          3 14 6 6 -1.</_>
        <_>
          3 16 6 2 3.</_></rects>
      <tilted>0</tilted></_>
    <_>
      <rects>
        <_>
          3 14 16 2 -1.</_>
        <_>
          3 15 16 1 2.</_></rects>
      <tilted>0</tilted></_>
    <_>
      <rects>
        <_>
          3 16 13 6 -1.</_>
        <_>
          3 19 13 3 2.</_></rects>
      <tilted>0</tilted></_>
    <_>
      <rects>
        <_>
          4 0 18 1 -1.</_>
        <_>
          10 0 6 1 3.</_></rects>
      <tilted>0</tilted></_>
    <_>
      <rects>
        <_>
          4 1 13 9 -1.</_>
        <_>
          4 4 13 3 3.</_></rects>
      <tilted>0</tilted></_>
    <_>
      <rects>
        <_>
          4 2 2 4 -1.</_>
        <_>
          4 4 2 2 2.</_></rects>
      <tilted>0</tilted></_>
    <_>
      <rects>
        <_>
          4 2 7 6 -1.</_>
        <_>
          4 4 7 2 3.</_></rects>
      <tilted>0</tilted></_>
    <_>
      <rects>
        <_>
          4 3 6 3 -1.</_>
        <_>
          4 4 6 1 3.</_></rects>
      <tilted>0</tilted></_>
    <_>
      <rects>
        <_>
          4 4 2 2 -1.</_>
        <_>
          4 4 1 1 2.</_>
        <_>
          5 5 1 1 2.</_></rects>
      <tilted>0</tilted></_>
    <_>
      <rects>
        <_>
          4 6 8 7 -1.</_>
        <_>
          8 6 4 7 2.</_></rects>
      <tilted>0</tilted></_>
    <_>
      <rects>
        <_>
          4 9 3 2 -1.</_>
        <_>
          4 10 3 1 2.</_></rects>
      <tilted>0</tilted></_>
    <_>
      <rects>
        <_>
          4 9 12 3 -1.</_>
        <_>
          8 9 4 3 3.</_></rects>
      <tilted>0</tilted></_>
    <_>
      <rects>
        <_>
          4 9 18 9 -1.</_>
        <_>
          10 9 6 9 3.</_></rects>
      <tilted>0</tilted></_>
    <_>
      <rects>
        <_>
          4 10 3 3 -1.</_>
        <_>
          5 10 1 3 3.</_></rects>
      <tilted>0</tilted></_>
    <_>
      <rects>
        <_>
          4 11 1 2 -1.</_>
        <_>
          4 12 1 1 2.</_></rects>
      <tilted>0</tilted></_>
    <_>
      <rects>
        <_>
          4 11 6 3 -1.</_>
        <_>
          6 11 2 3 3.</_></rects>
      <tilted>0</tilted></_>
    <_>
      <rects>
        <_>
          4 11 3 2 -1.</_>
        <_>
          4 12 3 1 2.</_></rects>
      <tilted>0</tilted></_>
    <_>
      <rects>
        <_>
          4 11 6 3 -1.</_>
        <_>
          4 12 6 1 3.</_></rects>
      <tilted>0</tilted></_>
    <_>
      <rects>
        <_>
          4 16 2 1 -1.</_>
        <_>
          5 16 1 1 2.</_></rects>
      <tilted>0</tilted></_>
    <_>
      <rects>
        <_>
          4 17 15 3 -1.</_>
        <_>
          9 17 5 3 3.</_></rects>
      <tilted>0</tilted></_>
    <_>
      <rects>
        <_>
          4 18 9 3 -1.</_>
        <_>
          4 19 9 1 3.</_></rects>
      <tilted>0</tilted></_>
    <_>
      <rects>
        <_>
          5 2 7 3 -1.</_>
        <_>
          5 3 7 1 3.</_></rects>
      <tilted>0</tilted></_>
    <_>
      <rects>
        <_>
          5 2 9 3 -1.</_>
        <_>
          5 3 9 1 3.</_></rects>
      <tilted>0</tilted></_>
    <_>
      <rects>
        <_>
          5 3 2 2 -1.</_>
        <_>
          5 3 1 1 2.</_>
        <_>
          6 4 1 1 2.</_></rects>
      <tilted>0</tilted></_>
    <_>
      <rects>
        <_>
          5 4 3 6 -1.</_>
        <_>
          6 4 1 6 3.</_></rects>
      <tilted>0</tilted></_>
    <_>
      <rects>
        <_>
          5 5 3 3 -1.</_>
        <_>
          6 5 1 3 3.</_></rects>
      <tilted>0</tilted></_>
    <_>
      <rects>
        <_>
          5 5 10 2 -1.</_>
        <_>
          5 5 5 1 2.</_>
        <_>
          10 6 5 1 2.</_></rects>
      <tilted>0</tilted></_>
    <_>
      <rects>
        <_>
          5 6 6 2 -1.</_>
        <_>
          5 6 3 1 2.</_>
        <_>
          8 7 3 1 2.</_></rects>
      <tilted>0</tilted></_>
    <_>
      <rects>
        <_>
          5 6 12 4 -1.</_>
        <_>
          5 8 12 2 2.</_></rects>
      <tilted>0</tilted></_>
    <_>
      <rects>
        <_>
          5 6 12 6 -1.</_>
        <_>
          5 8 12 2 3.</_></rects>
      <tilted>0</tilted></_>
    <_>
      <rects>
        <_>
          5 7 1 9 -1.</_>
        <_>
          5 10 1 3 3.</_></rects>
      <tilted>0</tilted></_>
    <_>
      <rects>
        <_>
          5 7 6 10 -1.</_>
        <_>
          5 7 3 5 2.</_>
        <_>
          8 12 3 5 2.</_></rects>
      <tilted>0</tilted></_>
    <_>
      <rects>
        <_>
          5 8 9 3 -1.</_>
        <_>
          5 9 9 1 3.</_></rects>
      <tilted>0</tilted></_>
    <_>
      <rects>
        <_>
          5 8 9 6 -1.</_>
        <_>
          5 10 9 2 3.</_></rects>
      <tilted>0</tilted></_>
    <_>
      <rects>
        <_>
          5 10 2 2 -1.</_>
        <_>
          5 11 2 1 2.</_></rects>
      <tilted>0</tilted></_>
    <_>
      <rects>
        <_>
          5 10 6 2 -1.</_>
        <_>
          7 10 2 2 3.</_></rects>
      <tilted>0</tilted></_>
    <_>
      <rects>
        <_>
          5 12 1 2 -1.</_>
        <_>
          5 13 1 1 2.</_></rects>
      <tilted>0</tilted></_>
    <_>
      <rects>
        <_>
          5 12 6 1 -1.</_>
        <_>
          7 12 2 1 3.</_></rects>
      <tilted>0</tilted></_>
    <_>
      <rects>
        <_>
          5 12 6 2 -1.</_>
        <_>
          5 13 6 1 2.</_></rects>
      <tilted>0</tilted></_>
    <_>
      <rects>
        <_>
          5 12 12 3 -1.</_>
        <_>
          5 13 12 1 3.</_></rects>
      <tilted>0</tilted></_>
    <_>
      <rects>
        <_>
          5 13 2 2 -1.</_>
        <_>
          5 14 2 1 2.</_></rects>
      <tilted>0</tilted></_>
    <_>
      <rects>
        <_>
          5 14 1 2 -1.</_>
        <_>
          5 15 1 1 2.</_></rects>
      <tilted>0</tilted></_>
    <_>
      <rects>
        <_>
          5 18 8 4 -1.</_>
        <_>
          5 18 4 2 2.</_>
        <_>
          9 20 4 2 2.</_></rects>
      <tilted>0</tilted></_>
    <_>
      <rects>
        <_>
          6 1 12 6 -1.</_>
        <_>
          10 1 4 6 3.</_></rects>
      <tilted>0</tilted></_>
    <_>
      <rects>
        <_>
          6 1 9 3 -1.</_>
        <_>
          6 2 9 1 3.</_></rects>
      <tilted>0</tilted></_>
    <_>
      <rects>
        <_>
          6 2 12 6 -1.</_>
        <_>
          6 4 12 2 3.</_></rects>
      <tilted>0</tilted></_>
    <_>
      <rects>
        <_>
          6 4 3 8 -1.</_>
        <_>
          7 4 1 8 3.</_></rects>
      <tilted>0</tilted></_>
    <_>
      <rects>
        <_>
          6 8 8 6 -1.</_>
        <_>
          6 10 8 2 3.</_></rects>
      <tilted>0</tilted></_>
    <_>
      <rects>
        <_>
          6 9 7 3 -1.</_>
        <_>
          6 10 7 1 3.</_></rects>
      <tilted>0</tilted></_>
    <_>
      <rects>
        <_>
          6 11 4 6 -1.</_>
        <_>
          6 13 4 2 3.</_></rects>
      <tilted>0</tilted></_>
    <_>
      <rects>
        <_>
          6 12 1 6 -1.</_>
        <_>
          6 14 1 2 3.</_></rects>
      <tilted>0</tilted></_>
    <_>
      <rects>
        <_>
          6 13 6 1 -1.</_>
        <_>
          8 13 2 1 3.</_></rects>
      <tilted>0</tilted></_>
    <_>
      <rects>
        <_>
          6 15 3 3 -1.</_>
        <_>
          7 15 1 3 3.</_></rects>
      <tilted>0</tilted></_>
    <_>
      <rects>
        <_>
          6 17 15 2 -1.</_>
        <_>
          11 17 5 2 3.</_></rects>
      <tilted>0</tilted></_>
    <_>
      <rects>
        <_>
          6 18 2 2 -1.</_>
        <_>
          6 18 1 1 2.</_>
        <_>
          7 19 1 1 2.</_></rects>
      <tilted>0</tilted></_>
    <_>
      <rects>
        <_>
          6 18 2 3 -1.</_>
        <_>
          6 19 2 1 3.</_></rects>
      <tilted>0</tilted></_>
    <_>
      <rects>
        <_>
          6 18 11 3 -1.</_>
        <_>
          6 19 11 1 3.</_></rects>
      <tilted>0</tilted></_>
    <_>
      <rects>
        <_>
          7 0 1 22 -1.</_>
        <_>
          7 11 1 11 2.</_></rects>
      <tilted>0</tilted></_>
    <_>
      <rects>
        <_>
          7 1 10 3 -1.</_>
        <_>
          7 2 10 1 3.</_></rects>
      <tilted>0</tilted></_>
    <_>
      <rects>
        <_>
          7 3 4 3 -1.</_>
        <_>
          9 3 2 3 2.</_></rects>
      <tilted>0</tilted></_>
    <_>
      <rects>
        <_>
          7 3 4 10 -1.</_>
        <_>
          7 8 4 5 2.</_></rects>
      <tilted>0</tilted></_>
    <_>
      <rects>
        <_>
          7 4 12 9 -1.</_>
        <_>
          11 4 4 9 3.</_></rects>
      <tilted>0</tilted></_>
    <_>
      <rects>
        <_>
          7 5 6 2 -1.</_>
        <_>
          7 5 3 1 2.</_>
        <_>
          10 6 3 1 2.</_></rects>
      <tilted>0</tilted></_>
    <_>
      <rects>
        <_>
          7 7 10 6 -1.</_>
        <_>
          7 9 10 2 3.</_></rects>
      <tilted>0</tilted></_>
    <_>
      <rects>
        <_>
          7 9 11 3 -1.</_>
        <_>
          7 10 11 1 3.</_></rects>
      <tilted>0</tilted></_>
    <_>
      <rects>
        <_>
          7 10 9 5 -1.</_>
        <_>
          10 10 3 5 3.</_></rects>
      <tilted>0</tilted></_>
    <_>
      <rects>
        <_>
          7 12 6 4 -1.</_>
        <_>
          7 12 3 2 2.</_>
        <_>
          10 14 3 2 2.</_></rects>
      <tilted>0</tilted></_>
    <_>
      <rects>
        <_>
          7 14 5 3 -1.</_>
        <_>
          7 15 5 1 3.</_></rects>
      <tilted>0</tilted></_>
    <_>
      <rects>
        <_>
          7 15 5 3 -1.</_>
        <_>
          7 16 5 1 3.</_></rects>
      <tilted>0</tilted></_>
    <_>
      <rects>
        <_>
          7 17 9 3 -1.</_>
        <_>
          7 18 9 1 3.</_></rects>
      <tilted>0</tilted></_>
    <_>
      <rects>
        <_>
          7 18 8 3 -1.</_>
        <_>
          7 19 8 1 3.</_></rects>
      <tilted>0</tilted></_>
    <_>
      <rects>
        <_>
          8 0 9 8 -1.</_>
        <_>
          11 0 3 8 3.</_></rects>
      <tilted>0</tilted></_>
    <_>
      <rects>
        <_>
          8 1 7 3 -1.</_>
        <_>
          8 2 7 1 3.</_></rects>
      <tilted>0</tilted></_>
    <_>
      <rects>
        <_>
          8 3 1 3 -1.</_>
        <_>
          8 4 1 1 3.</_></rects>
      <tilted>0</tilted></_>
    <_>
      <rects>
        <_>
          8 3 8 4 -1.</_>
        <_>
          8 3 4 2 2.</_>
        <_>
          12 5 4 2 2.</_></rects>
      <tilted>0</tilted></_>
    <_>
      <rects>
        <_>
          8 4 6 4 -1.</_>
        <_>
          10 4 2 4 3.</_></rects>
      <tilted>0</tilted></_>
    <_>
      <rects>
        <_>
          8 4 4 6 -1.</_>
        <_>
          8 7 4 3 2.</_></rects>
      <tilted>0</tilted></_>
    <_>
      <rects>
        <_>
          8 4 5 8 -1.</_>
        <_>
          8 8 5 4 2.</_></rects>
      <tilted>0</tilted></_>
    <_>
      <rects>
        <_>
          8 4 6 6 -1.</_>
        <_>
          8 7 6 3 2.</_></rects>
      <tilted>0</tilted></_>
    <_>
      <rects>
        <_>
          8 7 5 6 -1.</_>
        <_>
          8 9 5 2 3.</_></rects>
      <tilted>0</tilted></_>
    <_>
      <rects>
        <_>
          8 8 7 6 -1.</_>
        <_>
          8 10 7 2 3.</_></rects>
      <tilted>0</tilted></_>
    <_>
      <rects>
        <_>
          8 9 10 2 -1.</_>
        <_>
          8 9 5 1 2.</_>
        <_>
          13 10 5 1 2.</_></rects>
      <tilted>0</tilted></_>
    <_>
      <rects>
        <_>
          8 13 1 2 -1.</_>
        <_>
          8 14 1 1 2.</_></rects>
      <tilted>0</tilted></_>
    <_>
      <rects>
        <_>
          8 13 6 2 -1.</_>
        <_>
          10 13 2 2 3.</_></rects>
      <tilted>0</tilted></_>
    <_>
      <rects>
        <_>
          8 13 7 3 -1.</_>
        <_>
          8 14 7 1 3.</_></rects>
      <tilted>0</tilted></_>
    <_>
      <rects>
        <_>
          8 14 1 2 -1.</_>
        <_>
          8 15 1 1 2.</_></rects>
      <tilted>0</tilted></_>
    <_>
      <rects>
        <_>
          8 14 2 3 -1.</_>
        <_>
          8 15 2 1 3.</_></rects>
      <tilted>0</tilted></_>
    <_>
      <rects>
        <_>
          8 18 11 3 -1.</_>
        <_>
          8 19 11 1 3.</_></rects>
      <tilted>0</tilted></_>
    <_>
      <rects>
        <_>
          9 1 3 3 -1.</_>
        <_>
          9 2 3 1 3.</_></rects>
      <tilted>0</tilted></_>
    <_>
      <rects>
        <_>
          9 2 10 2 -1.</_>
        <_>
          9 2 5 1 2.</_>
        <_>
          14 3 5 1 2.</_></rects>
      <tilted>0</tilted></_>
    <_>
      <rects>
        <_>
          9 2 9 3 -1.</_>
        <_>
          9 3 9 1 3.</_></rects>
      <tilted>0</tilted></_>
    <_>
      <rects>
        <_>
          9 4 2 3 -1.</_>
        <_>
          9 5 2 1 3.</_></rects>
      <tilted>0</tilted></_>
    <_>
      <rects>
        <_>
          9 4 3 6 -1.</_>
        <_>
          9 6 3 2 3.</_></rects>
      <tilted>0</tilted></_>
    <_>
      <rects>
        <_>
          9 4 7 3 -1.</_>
        <_>
          9 5 7 1 3.</_></rects>
      <tilted>0</tilted></_>
    <_>
      <rects>
        <_>
          9 5 4 8 -1.</_>
        <_>
          9 5 2 4 2.</_>
        <_>
          11 9 2 4 2.</_></rects>
      <tilted>0</tilted></_>
    <_>
      <rects>
        <_>
          9 6 4 6 -1.</_>
        <_>
          9 8 4 2 3.</_></rects>
      <tilted>0</tilted></_>
    <_>
      <rects>
        <_>
          9 6 5 6 -1.</_>
        <_>
          9 8 5 2 3.</_></rects>
      <tilted>0</tilted></_>
    <_>
      <rects>
        <_>
          9 6 7 3 -1.</_>
        <_>
          9 7 7 1 3.</_></rects>
      <tilted>0</tilted></_>
    <_>
      <rects>
        <_>
          9 7 6 6 -1.</_>
        <_>
          9 9 6 2 3.</_></rects>
      <tilted>0</tilted></_>
    <_>
      <rects>
        <_>
          9 8 6 6 -1.</_>
        <_>
          11 8 2 6 3.</_></rects>
      <tilted>0</tilted></_>
    <_>
      <rects>
        <_>
          9 11 10 6 -1.</_>
        <_>
          9 14 10 3 2.</_></rects>
      <tilted>0</tilted></_>
    <_>
      <rects>
        <_>
          9 14 4 6 -1.</_>
        <_>
          9 17 4 3 2.</_></rects>
      <tilted>0</tilted></_>
    <_>
      <rects>
        <_>
          9 14 7 3 -1.</_>
        <_>
          9 15 7 1 3.</_></rects>
      <tilted>0</tilted></_>
    <_>
      <rects>
        <_>
          9 15 2 2 -1.</_>
        <_>
          9 16 2 1 2.</_></rects>
      <tilted>0</tilted></_>
    <_>
      <rects>
        <_>
          9 16 7 3 -1.</_>
        <_>
          9 17 7 1 3.</_></rects>
      <tilted>0</tilted></_>
    <_>
      <rects>
        <_>
          10 2 6 13 -1.</_>
        <_>
          12 2 2 13 3.</_></rects>
      <tilted>0</tilted></_>
    <_>
      <rects>
        <_>
          10 4 3 12 -1.</_>
        <_>
          10 8 3 4 3.</_></rects>
      <tilted>0</tilted></_>
    <_>
      <rects>
        <_>
          10 4 4 9 -1.</_>
        <_>
          10 7 4 3 3.</_></rects>
      <tilted>0</tilted></_>
    <_>
      <rects>
        <_>
          10 4 10 2 -1.</_>
        <_>
          10 4 5 1 2.</_>
        <_>
          15 5 5 1 2.</_></rects>
      <tilted>0</tilted></_>
    <_>
      <rects>
        <_>
          10 4 5 9 -1.</_>
        <_>
          10 7 5 3 3.</_></rects>
      <tilted>0</tilted></_>
    <_>
      <rects>
        <_>
          10 5 3 9 -1.</_>
        <_>
          10 8 3 3 3.</_></rects>
      <tilted>0</tilted></_>
    <_>
      <rects>
        <_>
          10 7 5 6 -1.</_>
        <_>
          10 9 5 2 3.</_></rects>
      <tilted>0</tilted></_>
    <_>
      <rects>
        <_>
          10 7 6 6 -1.</_>
        <_>
          10 9 6 2 3.</_></rects>
      <tilted>0</tilted></_>
    <_>
      <rects>
        <_>
          10 8 6 6 -1.</_>
        <_>
          10 8 3 3 2.</_>
        <_>
          13 11 3 3 2.</_></rects>
      <tilted>0</tilted></_>
    <_>
      <rects>
        <_>
          10 8 5 6 -1.</_>
        <_>
          10 10 5 2 3.</_></rects>
      <tilted>0</tilted></_>
    <_>
      <rects>
        <_>
          10 8 10 3 -1.</_>
        <_>
          10 9 10 1 3.</_></rects>
      <tilted>0</tilted></_>
    <_>
      <rects>
        <_>
          10 9 6 4 -1.</_>
        <_>
          12 9 2 4 3.</_></rects>
      <tilted>0</tilted></_>
    <_>
      <rects>
        <_>
          10 17 3 3 -1.</_>
        <_>
          10 18 3 1 3.</_></rects>
      <tilted>0</tilted></_>
    <_>
      <rects>
        <_>
          10 18 1 2 -1.</_>
        <_>
          10 19 1 1 2.</_></rects>
      <tilted>0</tilted></_>
    <_>
      <rects>
        <_>
          11 2 6 4 -1.</_>
        <_>
          14 2 3 4 2.</_></rects>
      <tilted>0</tilted></_>
    <_>
      <rects>
        <_>
          11 2 8 4 -1.</_>
        <_>
          11 2 4 2 2.</_>
        <_>
          15 4 4 2 2.</_></rects>
      <tilted>0</tilted></_>
    <_>
      <rects>
        <_>
          11 3 3 9 -1.</_>
        <_>
          11 6 3 3 3.</_></rects>
      <tilted>0</tilted></_>
    <_>
      <rects>
        <_>
          11 3 8 2 -1.</_>
        <_>
          11 3 4 1 2.</_>
        <_>
          15 4 4 1 2.</_></rects>
      <tilted>0</tilted></_>
    <_>
      <rects>
        <_>
          11 4 2 6 -1.</_>
        <_>
          12 4 1 6 2.</_></rects>
      <tilted>0</tilted></_>
    <_>
      <rects>
        <_>
          11 6 1 9 -1.</_>
        <_>
          11 9 1 3 3.</_></rects>
      <tilted>0</tilted></_>
    <_>
      <rects>
        <_>
          11 7 6 2 -1.</_>
        <_>
          11 8 6 1 2.</_></rects>
      <tilted>0</tilted></_>
    <_>
      <rects>
        <_>
          11 10 3 2 -1.</_>
        <_>
          11 11 3 1 2.</_></rects>
      <tilted>0</tilted></_>
    <_>
      <rects>
        <_>
          11 11 2 2 -1.</_>
        <_>
          11 12 2 1 2.</_></rects>
      <tilted>0</tilted></_>
    <_>
      <rects>
        <_>
          11 11 3 2 -1.</_>
        <_>
          11 12 3 1 2.</_></rects>
      <tilted>0</tilted></_>
    <_>
      <rects>
        <_>
          11 13 3 2 -1.</_>
        <_>
          12 13 1 2 3.</_></rects>
      <tilted>0</tilted></_>
    <_>
      <rects>
        <_>
          12 2 6 6 -1.</_>
        <_>
          12 4 6 2 3.</_></rects>
      <tilted>0</tilted></_>
    <_>
      <rects>
        <_>
          12 3 1 9 -1.</_>
        <_>
          12 6 1 3 3.</_></rects>
      <tilted>0</tilted></_>
    <_>
      <rects>
        <_>
          12 3 6 3 -1.</_>
        <_>
          12 4 6 1 3.</_></rects>
      <tilted>0</tilted></_>
    <_>
      <rects>
        <_>
          12 4 2 2 -1.</_>
        <_>
          12 4 1 1 2.</_>
        <_>
          13 5 1 1 2.</_></rects>
      <tilted>0</tilted></_>
    <_>
      <rects>
        <_>
          12 4 2 3 -1.</_>
        <_>
          12 5 2 1 3.</_></rects>
      <tilted>0</tilted></_>
    <_>
      <rects>
        <_>
          12 4 9 7 -1.</_>
        <_>
          15 4 3 7 3.</_></rects>
      <tilted>0</tilted></_>
    <_>
      <rects>
        <_>
          12 5 1 9 -1.</_>
        <_>
          12 8 1 3 3.</_></rects>
      <tilted>0</tilted></_>
    <_>
      <rects>
        <_>
          12 5 2 6 -1.</_>
        <_>
          12 7 2 2 3.</_></rects>
      <tilted>0</tilted></_>
    <_>
      <rects>
        <_>
          12 11 4 4 -1.</_>
        <_>
          12 13 4 2 2.</_></rects>
      <tilted>0</tilted></_>
    <_>
      <rects>
        <_>
          12 12 2 2 -1.</_>
        <_>
          12 13 2 1 2.</_></rects>
      <tilted>0</tilted></_>
    <_>
      <rects>
        <_>
          12 12 10 10 -1.</_>
        <_>
          12 12 5 5 2.</_>
        <_>
          17 17 5 5 2.</_></rects>
      <tilted>0</tilted></_>
    <_>
      <rects>
        <_>
          12 16 1 3 -1.</_>
        <_>
          12 17 1 1 3.</_></rects>
      <tilted>0</tilted></_>
    <_>
      <rects>
        <_>
          13 1 1 3 -1.</_>
        <_>
          13 2 1 1 3.</_></rects>
      <tilted>0</tilted></_>
    <_>
      <rects>
        <_>
          13 3 6 6 -1.</_>
        <_>
          15 3 2 6 3.</_></rects>
      <tilted>0</tilted></_>
    <_>
      <rects>
        <_>
          13 3 6 2 -1.</_>
        <_>
          13 3 3 1 2.</_>
        <_>
          16 4 3 1 2.</_></rects>
      <tilted>0</tilted></_>
    <_>
      <rects>
        <_>
          13 4 6 2 -1.</_>
        <_>
          13 4 3 1 2.</_>
        <_>
          16 5 3 1 2.</_></rects>
      <tilted>0</tilted></_>
    <_>
      <rects>
        <_>
          13 5 2 1 -1.</_>
        <_>
          14 5 1 1 2.</_></rects>
      <tilted>0</tilted></_>
    <_>
      <rects>
        <_>
          13 5 2 12 -1.</_>
        <_>
          13 5 1 6 2.</_>
        <_>
          14 11 1 6 2.</_></rects>
      <tilted>0</tilted></_>
    <_>
      <rects>
        <_>
          13 6 4 2 -1.</_>
        <_>
          13 6 2 1 2.</_>
        <_>
          15 7 2 1 2.</_></rects>
      <tilted>0</tilted></_>
    <_>
      <rects>
        <_>
          13 10 6 4 -1.</_>
        <_>
          13 12 6 2 2.</_></rects>
      <tilted>0</tilted></_>
    <_>
      <rects>
        <_>
          13 11 5 3 -1.</_>
        <_>
          13 12 5 1 3.</_></rects>
      <tilted>0</tilted></_>
    <_>
      <rects>
        <_>
          13 17 6 1 -1.</_>
        <_>
          15 17 2 1 3.</_></rects>
      <tilted>0</tilted></_>
    <_>
      <rects>
        <_>
          14 3 1 6 -1.</_>
        <_>
          14 5 1 2 3.</_></rects>
      <tilted>0</tilted></_>
    <_>
      <rects>
        <_>
          14 4 8 10 -1.</_>
        <_>
          18 4 4 10 2.</_></rects>
      <tilted>0</tilted></_>
    <_>
      <rects>
        <_>
          14 5 6 2 -1.</_>
        <_>
          14 5 3 1 2.</_>
        <_>
          17 6 3 1 2.</_></rects>
      <tilted>0</tilted></_>
    <_>
      <rects>
        <_>
          14 5 4 3 -1.</_>
        <_>
          14 6 4 1 3.</_></rects>
      <tilted>0</tilted></_>
    <_>
      <rects>
        <_>
          14 6 2 15 -1.</_>
        <_>
          14 11 2 5 3.</_></rects>
      <tilted>0</tilted></_>
    <_>
      <rects>
        <_>
          14 6 6 2 -1.</_>
        <_>
          14 6 3 1 2.</_>
        <_>
          17 7 3 1 2.</_></rects>
      <tilted>0</tilted></_>
    <_>
      <rects>
        <_>
          14 9 6 8 -1.</_>
        <_>
          14 9 3 4 2.</_>
        <_>
          17 13 3 4 2.</_></rects>
      <tilted>0</tilted></_>
    <_>
      <rects>
        <_>
          14 11 1 6 -1.</_>
        <_>
          14 13 1 2 3.</_></rects>
      <tilted>0</tilted></_>
    <_>
      <rects>
        <_>
          14 12 2 6 -1.</_>
        <_>
          14 14 2 2 3.</_></rects>
      <tilted>0</tilted></_>
    <_>
      <rects>
        <_>
          14 17 6 2 -1.</_>
        <_>
          14 17 3 1 2.</_>
        <_>
          17 18 3 1 2.</_></rects>
      <tilted>0</tilted></_>
    <_>
      <rects>
        <_>
          15 2 6 8 -1.</_>
        <_>
          15 2 3 4 2.</_>
        <_>
          18 6 3 4 2.</_></rects>
      <tilted>0</tilted></_>
    <_>
      <rects>
        <_>
          15 2 5 9 -1.</_>
        <_>
          15 5 5 3 3.</_></rects>
      <tilted>0</tilted></_>
    <_>
      <rects>
        <_>
          15 4 6 10 -1.</_>
        <_>
          17 4 2 10 3.</_></rects>
      <tilted>0</tilted></_>
    <_>
      <rects>
        <_>
          15 5 3 9 -1.</_>
        <_>
          16 5 1 9 3.</_></rects>
      <tilted>0</tilted></_>
    <_>
      <rects>
        <_>
          15 5 3 6 -1.</_>
        <_>
          15 7 3 2 3.</_></rects>
      <tilted>0</tilted></_>
    <_>
      <rects>
        <_>
          15 8 3 2 -1.</_>
        <_>
          16 8 1 2 3.</_></rects>
      <tilted>0</tilted></_>
    <_>
      <rects>
        <_>
          15 9 3 2 -1.</_>
        <_>
          15 10 3 1 2.</_></rects>
      <tilted>0</tilted></_>
    <_>
      <rects>
        <_>
          15 12 3 6 -1.</_>
        <_>
          15 14 3 2 3.</_></rects>
      <tilted>0</tilted></_>
    <_>
      <rects>
        <_>
          15 15 1 6 -1.</_>
        <_>
          15 18 1 3 2.</_></rects>
      <tilted>0</tilted></_>
    <_>
      <rects>
        <_>
          15 16 4 2 -1.</_>
        <_>
          15 16 2 1 2.</_>
        <_>
          17 17 2 1 2.</_></rects>
      <tilted>0</tilted></_>
    <_>
      <rects>
        <_>
          15 16 6 2 -1.</_>
        <_>
          15 16 3 1 2.</_>
        <_>
          18 17 3 1 2.</_></rects>
      <tilted>0</tilted></_>
    <_>
      <rects>
        <_>
          16 3 2 10 -1.</_>
        <_>
          16 3 1 5 2.</_>
        <_>
          17 8 1 5 2.</_></rects>
      <tilted>0</tilted></_>
    <_>
      <rects>
        <_>
          16 3 4 4 -1.</_>
        <_>
          16 3 2 2 2.</_>
        <_>
          18 5 2 2 2.</_></rects>
      <tilted>0</tilted></_>
    <_>
      <rects>
        <_>
          16 4 4 4 -1.</_>
        <_>
          16 4 2 2 2.</_>
        <_>
          18 6 2 2 2.</_></rects>
      <tilted>0</tilted></_>
    <_>
      <rects>
        <_>
          16 5 2 6 -1.</_>
        <_>
          16 7 2 2 3.</_></rects>
      <tilted>0</tilted></_>
    <_>
      <rects>
        <_>
          16 5 6 8 -1.</_>
        <_>
          18 5 2 8 3.</_></rects>
      <tilted>0</tilted></_>
    <_>
      <rects>
        <_>
          16 5 4 6 -1.</_>
        <_>
          16 7 4 2 3.</_></rects>
      <tilted>0</tilted></_>
    <_>
      <rects>
        <_>
          16 8 6 1 -1.</_>
        <_>
          19 8 3 1 2.</_></rects>
      <tilted>0</tilted></_>
    <_>
      <rects>
        <_>
          16 11 3 2 -1.</_>
        <_>
          16 12 3 1 2.</_></rects>
      <tilted>0</tilted></_>
    <_>
      <rects>
        <_>
          17 2 2 6 -1.</_>
        <_>
          17 2 1 3 2.</_>
        <_>
          18 5 1 3 2.</_></rects>
      <tilted>0</tilted></_>
    <_>
      <rects>
        <_>
          17 3 2 6 -1.</_>
        <_>
          17 3 1 3 2.</_>
        <_>
          18 6 1 3 2.</_></rects>
      <tilted>0</tilted></_>
    <_>
      <rects>
        <_>
          17 3 2 5 -1.</_>
        <_>
          18 3 1 5 2.</_></rects>
      <tilted>0</tilted></_>
    <_>
      <rects>
        <_>
          18 0 4 1 -1.</_>
        <_>
          20 0 2 1 2.</_></rects>
      <tilted>0</tilted></_>
    <_>
      <rects>
        <_>
          18 5 3 11 -1.</_>
        <_>
          19 5 1 11 3.</_></rects>
      <tilted>0</tilted></_>
    <_>
      <rects>
        <_>
          18 6 2 2 -1.</_>
        <_>
          18 6 1 1 2.</_>
        <_>
          19 7 1 1 2.</_></rects>
      <tilted>0</tilted></_>
    <_>
      <rects>
        <_>
          18 6 3 9 -1.</_>
        <_>
          19 6 1 9 3.</_></rects>
      <tilted>0</tilted></_>
    <_>
      <rects>
        <_>
          18 6 3 11 -1.</_>
        <_>
          19 6 1 11 3.</_></rects>
      <tilted>0</tilted></_>
    <_>
      <rects>
        <_>
          18 7 3 3 -1.</_>
        <_>
          19 7 1 3 3.</_></rects>
      <tilted>0</tilted></_>
    <_>
      <rects>
        <_>
          18 7 3 6 -1.</_>
        <_>
          19 7 1 6 3.</_></rects>
      <tilted>0</tilted></_>
    <_>
      <rects>
        <_>
          18 9 3 5 -1.</_>
        <_>
          19 9 1 5 3.</_></rects>
      <tilted>0</tilted></_>
    <_>
      <rects>
        <_>
          18 9 4 1 -1.</_>
        <_>
          20 9 2 1 2.</_></rects>
      <tilted>0</tilted></_>
    <_>
      <rects>
        <_>
          18 11 1 2 -1.</_>
        <_>
          18 12 1 1 2.</_></rects>
      <tilted>0</tilted></_>
    <_>
      <rects>
        <_>
          19 4 3 7 -1.</_>
        <_>
          20 4 1 7 3.</_></rects>
      <tilted>0</tilted></_>
    <_>
      <rects>
        <_>
          19 9 3 2 -1.</_>
        <_>
          20 9 1 2 3.</_></rects>
      <tilted>0</tilted></_>
    <_>
      <rects>
        <_>
          19 12 3 7 -1.</_>
        <_>
          20 12 1 7 3.</_></rects>
      <tilted>0</tilted></_>
    <_>
      <rects>
        <_>
          20 3 2 2 -1.</_>
        <_>
          21 3 1 2 2.</_></rects>
      <tilted>0</tilted></_>
    <_>
      <rects>
        <_>
          20 11 2 2 -1.</_>
        <_>
          20 11 1 1 2.</_>
        <_>
          21 12 1 1 2.</_></rects>
      <tilted>0</tilted></_>
    <_>
      <rects>
        <_>
          21 2 1 8 -1.</_>
        <_>
          21 6 1 4 2.</_></rects>
      <tilted>0</tilted></_></features></cascade>
</opencv_storage>
