<?xml version="1.0"?>
<opencv_storage>
<stage5>
  <maxWeakCount>16</maxWeakCount>
  <stageThreshold>-3.4397503733634949e-01</stageThreshold>
  <weakClassifiers>
    <_>
      <internalNodes>
        0 -1 39640 1.2165507301688194e-02</internalNodes>
      <leafValues>
        -2.1491228044033051e-01 6.6935485601425171e-01</leafValues></_>
    <_>
      <internalNodes>
        0 -1 79663 -9.3101188540458679e-03</internalNodes>
      <leafValues>
        4.5978778600692749e-01 -3.6095696687698364e-01</leafValues></_>
    <_>
      <internalNodes>
        0 -1 82450 2.1895887330174446e-03</internalNodes>
      <leafValues>
        -3.7917444109916687e-01 4.5935723185539246e-01</leafValues></_>
    <_>
      <internalNodes>
        0 -1 11196 1.4227324165403843e-02</internalNodes>
      <leafValues>
        -2.7954700589179993e-01 4.9063616991043091e-01</leafValues></_>
    <_>
      <internalNodes>
        0 -1 52251 -3.1626543204765767e-05</internalNodes>
      <leafValues>
        1.8261432647705078e-01 -6.7313086986541748e-01</leafValues></_>
    <_>
      <internalNodes>
        0 -1 50412 1.0902351699769497e-02</internalNodes>
      <leafValues>
        1.5292939543724060e-01 -7.9905349016189575e-01</leafValues></_>
    <_>
      <internalNodes>
        0 -1 72449 1.1792723089456558e-03</internalNodes>
      <leafValues>
        1.5539957582950592e-01 -6.9444942474365234e-01</leafValues></_>
    <_>
      <internalNodes>
        0 -1 18656 2.7535408735275269e-03</internalNodes>
      <leafValues>
        -2.7138561010360718e-01 4.6683639287948608e-01</leafValues></_>
    <_>
      <internalNodes>
        0 -1 85792 -9.7892584744840860e-04</internalNodes>
      <leafValues>
        6.4596909284591675e-01 -1.9564537703990936e-01</leafValues></_>
    <_>
      <internalNodes>
        0 -1 101231 1.4953955542296171e-03</internalNodes>
      <leafValues>
        -2.7933958172798157e-01 4.7866764664649963e-01</leafValues></_>
    <_>
      <internalNodes>
        0 -1 23386 -1.3745401054620743e-02</internalNodes>
      <leafValues>
        -6.8862718343734741e-01 1.9204738736152649e-01</leafValues></_>
    <_>
      <internalNodes>
        0 -1 50303 5.6068925186991692e-03</internalNodes>
      <leafValues>
        1.2267049401998520e-01 -8.8877302408218384e-01</leafValues></_>
    <_>
      <internalNodes>
        0 -1 36861 -4.7239288687705994e-03</internalNodes>
      <leafValues>
        2.8278720378875732e-01 -4.0996107459068298e-01</leafValues></_>
    <_>
      <internalNodes>
        0 -1 101198 -3.5548351705074310e-02</internalNodes>
      <leafValues>
        8.6357837915420532e-01 -1.5201881527900696e-01</leafValues></_>
    <_>
      <internalNodes>
        0 -1 26369 5.9862609487026930e-04</internalNodes>
      <leafValues>
        -1.6212737560272217e-01 6.3898807764053345e-01</leafValues></_>
    <_>
      <internalNodes>
        0 -1 44099 -1.4740045116923284e-05</internalNodes>
      <leafValues>
        2.3200865089893341e-01 -6.3713777065277100e-01</leafValues></_></weakClassifiers></stage5>
</opencv_storage>
