<?xml version="1.0"?>
<opencv_storage>
<stage8>
  <maxWeakCount>20</maxWeakCount>
  <stageThreshold>-4.2334666848182678e-01</stageThreshold>
  <weakClassifiers>
    <_>
      <internalNodes>
        0 -1 64142 -9.7345217363908887e-04</internalNodes>
      <leafValues>
        -4.0196079015731812e-01 4.8393574357032776e-01</leafValues></_>
    <_>
      <internalNodes>
        0 -1 48013 6.0823247767984867e-03</internalNodes>
      <leafValues>
        -2.5402474403381348e-01 5.0714957714080811e-01</leafValues></_>
    <_>
      <internalNodes>
        0 -1 98388 -1.0406518122181296e-03</internalNodes>
      <leafValues>
        1.4445665478706360e-01 -7.6747131347656250e-01</leafValues></_>
    <_>
      <internalNodes>
        0 -1 102873 1.2260393705219030e-03</internalNodes>
      <leafValues>
        -2.2932383418083191e-01 4.2557695508003235e-01</leafValues></_>
    <_>
      <internalNodes>
        0 -1 111816 -3.4469733946025372e-03</internalNodes>
      <leafValues>
        4.6188664436340332e-01 -2.2546230256557465e-01</leafValues></_>
    <_>
      <internalNodes>
        0 -1 111611 5.9676547534763813e-03</internalNodes>
      <leafValues>
        -1.9699470698833466e-01 5.4924935102462769e-01</leafValues></_>
    <_>
      <internalNodes>
        0 -1 52586 -1.2670483556576073e-04</internalNodes>
      <leafValues>
        2.1869677305221558e-01 -5.6871050596237183e-01</leafValues></_>
    <_>
      <internalNodes>
        0 -1 7222 4.6929991804063320e-03</internalNodes>
      <leafValues>
        -2.8613567352294922e-01 3.3364376425743103e-01</leafValues></_>
    <_>
      <internalNodes>
        0 -1 38141 1.7272988334298134e-02</internalNodes>
      <leafValues>
        1.3341324031352997e-01 -6.5462595224380493e-01</leafValues></_>
    <_>
      <internalNodes>
        0 -1 92373 -8.2157447468489408e-04</internalNodes>
      <leafValues>
        -9.3642622232437134e-01 9.3865022063255310e-02</leafValues></_>
    <_>
      <internalNodes>
        0 -1 61028 2.2182506509125233e-03</internalNodes>
      <leafValues>
        -1.7445965111255646e-01 6.1905705928802490e-01</leafValues></_>
    <_>
      <internalNodes>
        0 -1 46026 -6.1046155169606209e-03</internalNodes>
      <leafValues>
        6.6775029897689819e-01 -1.5130701661109924e-01</leafValues></_>
    <_>
      <internalNodes>
        0 -1 101034 -1.4496791663987096e-05</internalNodes>
      <leafValues>
        -5.1074486970901489e-01 2.1529050171375275e-01</leafValues></_>
    <_>
      <internalNodes>
        0 -1 77546 3.8283986214082688e-05</internalNodes>
      <leafValues>
        -3.2889065146446228e-01 2.5655284523963928e-01</leafValues></_>
    <_>
      <internalNodes>
        0 -1 76571 3.8626804016530514e-03</internalNodes>
      <leafValues>
        1.2739005684852600e-01 -7.1481788158416748e-01</leafValues></_>
    <_>
      <internalNodes>
        0 -1 50214 -8.8413730263710022e-03</internalNodes>
      <leafValues>
        2.4661743640899658e-01 -3.6042156815528870e-01</leafValues></_>
    <_>
      <internalNodes>
        0 -1 51072 -5.2858586423099041e-04</internalNodes>
      <leafValues>
        -5.5583989620208740e-01 2.0489066839218140e-01</leafValues></_>
    <_>
      <internalNodes>
        0 -1 60950 2.4446278810501099e-02</internalNodes>
      <leafValues>
        -1.6505385935306549e-01 6.4807844161987305e-01</leafValues></_>
    <_>
      <internalNodes>
        0 -1 45851 -2.7917854487895966e-02</internalNodes>
      <leafValues>
        6.1417609453201294e-01 -1.5902353823184967e-01</leafValues></_>
    <_>
      <internalNodes>
        0 -1 114061 -9.5559726469218731e-04</internalNodes>
      <leafValues>
        -5.4457271099090576e-01 2.0330043137073517e-01</leafValues></_></weakClassifiers></stage8>
</opencv_storage>
