<?xml version="1.0"?>
<opencv_storage>
<stage10>
  <maxWeakCount>26</maxWeakCount>
  <stageThreshold>-5.2357488870620728e-01</stageThreshold>
  <weakClassifiers>
    <_>
      <internalNodes>
        0 -1 96516 4.2387554422020912e-03</internalNodes>
      <leafValues>
        -8.0213904380798340e-02 5.2058112621307373e-01</leafValues></_>
    <_>
      <internalNodes>
        0 -1 24342 -8.8704319205135107e-04</internalNodes>
      <leafValues>
        2.9472815990447998e-01 -3.1115749478340149e-01</leafValues></_>
    <_>
      <internalNodes>
        0 -1 73443 -3.0850314942654222e-05</internalNodes>
      <leafValues>
        1.4978450536727905e-01 -5.9652590751647949e-01</leafValues></_>
    <_>
      <internalNodes>
        0 -1 69068 -8.7517872452735901e-03</internalNodes>
      <leafValues>
        4.1053095459938049e-01 -2.2042351961135864e-01</leafValues></_>
    <_>
      <internalNodes>
        0 -1 4662 3.3423647284507751e-02</internalNodes>
      <leafValues>
        9.9736675620079041e-02 -8.3652627468109131e-01</leafValues></_>
    <_>
      <internalNodes>
        0 -1 101867 -4.1000633500516415e-03</internalNodes>
      <leafValues>
        3.4711426496505737e-01 -2.4459213018417358e-01</leafValues></_>
    <_>
      <internalNodes>
        0 -1 82744 7.6622178312391043e-04</internalNodes>
      <leafValues>
        -5.7142198085784912e-01 1.7052917182445526e-01</leafValues></_>
    <_>
      <internalNodes>
        0 -1 49907 2.4815060896798968e-04</internalNodes>
      <leafValues>
        1.2014970928430557e-01 -5.1273679733276367e-01</leafValues></_>
    <_>
      <internalNodes>
        0 -1 53628 2.9118144884705544e-03</internalNodes>
      <leafValues>
        -2.2788479924201965e-01 3.6867707967758179e-01</leafValues></_>
    <_>
      <internalNodes>
        0 -1 67865 3.4260195679962635e-03</internalNodes>
      <leafValues>
        -1.4045414328575134e-01 4.5046931505203247e-01</leafValues></_>
    <_>
      <internalNodes>
        0 -1 114672 1.0160454548895359e-02</internalNodes>
      <leafValues>
        8.8906250894069672e-02 -6.9994843006134033e-01</leafValues></_>
    <_>
      <internalNodes>
        0 -1 83595 5.8981934562325478e-03</internalNodes>
      <leafValues>
        9.4673477113246918e-02 -7.0358258485794067e-01</leafValues></_>
    <_>
      <internalNodes>
        0 -1 18352 -1.5689171850681305e-02</internalNodes>
      <leafValues>
        4.9489909410476685e-01 -1.7125044763088226e-01</leafValues></_>
    <_>
      <internalNodes>
        0 -1 89433 7.6366690336726606e-05</internalNodes>
      <leafValues>
        1.1816219985485077e-01 -7.3553651571273804e-01</leafValues></_>
    <_>
      <internalNodes>
        0 -1 95053 1.5286216512322426e-04</internalNodes>
      <leafValues>
        -2.7720308303833008e-01 2.7696207165718079e-01</leafValues></_>
    <_>
      <internalNodes>
        0 -1 43498 -4.6254239976406097e-02</internalNodes>
      <leafValues>
        6.4447289705276489e-01 -1.1888638138771057e-01</leafValues></_>
    <_>
      <internalNodes>
        0 -1 103696 -2.1836444735527039e-02</internalNodes>
      <leafValues>
        4.7762775421142578e-01 -1.6452980041503906e-01</leafValues></_>
    <_>
      <internalNodes>
        0 -1 109376 2.2447672672569752e-03</internalNodes>
      <leafValues>
        -1.8883475661277771e-01 4.6243590116500854e-01</leafValues></_>
    <_>
      <internalNodes>
        0 -1 104822 1.6128260176628828e-03</internalNodes>
      <leafValues>
        1.2454751878976822e-01 -7.5566983222961426e-01</leafValues></_>
    <_>
      <internalNodes>
        0 -1 89989 3.6896421079291031e-05</internalNodes>
      <leafValues>
        -3.0968508124351501e-01 2.6186269521713257e-01</leafValues></_>
    <_>
      <internalNodes>
        0 -1 31345 -3.0822469852864742e-03</internalNodes>
      <leafValues>
        3.0349701642990112e-01 -2.5435212254524231e-01</leafValues></_>
    <_>
      <internalNodes>
        0 -1 104278 1.1627038475126028e-03</internalNodes>
      <leafValues>
        -3.1199368834495544e-01 3.0282306671142578e-01</leafValues></_>
    <_>
      <internalNodes>
        0 -1 44276 -1.4659641310572624e-03</internalNodes>
      <leafValues>
        -7.4983149766921997e-01 1.1573477089405060e-01</leafValues></_>
    <_>
      <internalNodes>
        0 -1 82457 2.6780385524034500e-03</internalNodes>
      <leafValues>
        -4.2554581165313721e-01 1.7127965390682220e-01</leafValues></_>
    <_>
      <internalNodes>
        0 -1 23490 -7.7925394289195538e-03</internalNodes>
      <leafValues>
        6.7300689220428467e-01 -1.2342318892478943e-01</leafValues></_>
    <_>
      <internalNodes>
        0 -1 76768 -4.3638038914650679e-04</internalNodes>
      <leafValues>
        -6.7002540826797485e-01 1.3217525184154510e-01</leafValues></_></weakClassifiers></stage10>
</opencv_storage>
