<?xml version="1.0"?>
<opencv_storage>
<stage13>
  <maxWeakCount>30</maxWeakCount>
  <stageThreshold>-5.3794163465499878e-01</stageThreshold>
  <weakClassifiers>
    <_>
      <internalNodes>
        0 -1 69942 -1.7412777524441481e-03</internalNodes>
      <leafValues>
        -3.0769231915473938e-01 4.4793713092803955e-01</leafValues></_>
    <_>
      <internalNodes>
        0 -1 96855 3.6614066921174526e-03</internalNodes>
      <leafValues>
        -1.3509914278984070e-01 4.2303207516670227e-01</leafValues></_>
    <_>
      <internalNodes>
        0 -1 77477 3.0304281608550809e-05</internalNodes>
      <leafValues>
        -4.5204314589500427e-01 1.5857131779193878e-01</leafValues></_>
    <_>
      <internalNodes>
        0 -1 7837 1.4073383808135986e-01</internalNodes>
      <leafValues>
        -1.0256174951791763e-01 7.6227962970733643e-01</leafValues></_>
    <_>
      <internalNodes>
        0 -1 70520 -1.0899906978011131e-02</internalNodes>
      <leafValues>
        3.1891393661499023e-01 -2.6268425583839417e-01</leafValues></_>
    <_>
      <internalNodes>
        0 -1 102317 7.8046193812042475e-04</internalNodes>
      <leafValues>
        -2.3910573124885559e-01 2.9718223214149475e-01</leafValues></_>
    <_>
      <internalNodes>
        0 -1 56323 -1.0943000670522451e-03</internalNodes>
      <leafValues>
        -6.3820058107376099e-01 7.8266814351081848e-02</leafValues></_>
    <_>
      <internalNodes>
        0 -1 94355 -2.5124207604676485e-04</internalNodes>
      <leafValues>
        8.2617439329624176e-02 -8.6282992362976074e-01</leafValues></_>
    <_>
      <internalNodes>
        0 -1 6669 -1.2822067365050316e-03</internalNodes>
      <leafValues>
        4.3816363811492920e-01 -1.6546951234340668e-01</leafValues></_>
    <_>
      <internalNodes>
        0 -1 7215 6.0551892966032028e-03</internalNodes>
      <leafValues>
        -3.1025195121765137e-01 2.6631322503089905e-01</leafValues></_>
    <_>
      <internalNodes>
        0 -1 27261 -4.8532909713685513e-03</internalNodes>
      <leafValues>
        4.0176600217819214e-01 -1.8692201375961304e-01</leafValues></_>
    <_>
      <internalNodes>
        0 -1 111692 -1.0732489172369242e-03</internalNodes>
      <leafValues>
        4.3152353167533875e-01 -1.4468742907047272e-01</leafValues></_>
    <_>
      <internalNodes>
        0 -1 75803 5.7869143784046173e-03</internalNodes>
      <leafValues>
        -1.1287058144807816e-01 6.0099059343338013e-01</leafValues></_>
    <_>
      <internalNodes>
        0 -1 50215 1.6881152987480164e-02</internalNodes>
      <leafValues>
        8.4917418658733368e-02 -9.0742051601409912e-01</leafValues></_>
    <_>
      <internalNodes>
        0 -1 69750 -6.7052125814370811e-05</internalNodes>
      <leafValues>
        -5.5125290155410767e-01 9.8790228366851807e-02</leafValues></_>
    <_>
      <internalNodes>
        0 -1 10235 -1.1009797453880310e-02</internalNodes>
      <leafValues>
        -4.9151399731636047e-01 1.4474114775657654e-01</leafValues></_>
    <_>
      <internalNodes>
        0 -1 114442 -2.9499980155378580e-04</internalNodes>
      <leafValues>
        3.8485604524612427e-01 -1.8079382181167603e-01</leafValues></_>
    <_>
      <internalNodes>
        0 -1 108219 -1.6244890866801143e-04</internalNodes>
      <leafValues>
        1.5438988804817200e-01 -5.0648325681686401e-01</leafValues></_>
    <_>
      <internalNodes>
        0 -1 51604 8.5130904335528612e-04</internalNodes>
      <leafValues>
        -2.2911290824413300e-01 3.8770905137062073e-01</leafValues></_>
    <_>
      <internalNodes>
        0 -1 85726 1.3090709690004587e-03</internalNodes>
      <leafValues>
        -1.7484022676944733e-01 3.7421455979347229e-01</leafValues></_>
    <_>
      <internalNodes>
        0 -1 79779 -1.9448993043624796e-05</internalNodes>
      <leafValues>
        1.4649216830730438e-01 -4.8980793356895447e-01</leafValues></_>
    <_>
      <internalNodes>
        0 -1 73600 1.3658720999956131e-03</internalNodes>
      <leafValues>
        1.4654193818569183e-01 -4.4758975505828857e-01</leafValues></_>
    <_>
      <internalNodes>
        0 -1 110920 2.3587245959788561e-03</internalNodes>
      <leafValues>
        1.0424751043319702e-01 -6.2761431932449341e-01</leafValues></_>
    <_>
      <internalNodes>
        0 -1 16008 -2.9849386774003506e-03</internalNodes>
      <leafValues>
        5.3064036369323730e-01 -1.3864988088607788e-01</leafValues></_>
    <_>
      <internalNodes>
        0 -1 22781 1.5005773305892944e-01</internalNodes>
      <leafValues>
        1.2693971395492554e-01 -5.8076184988021851e-01</leafValues></_>
    <_>
      <internalNodes>
        0 -1 63215 -1.9663766026496887e-02</internalNodes>
      <leafValues>
        2.8441882133483887e-01 -2.5253444910049438e-01</leafValues></_>
    <_>
      <internalNodes>
        0 -1 102134 1.5986655489541590e-04</internalNodes>
      <leafValues>
        -2.5776749849319458e-01 2.7722612023353577e-01</leafValues></_>
    <_>
      <internalNodes>
        0 -1 26363 4.9391121137887239e-04</internalNodes>
      <leafValues>
        -1.5046435594558716e-01 4.2577546834945679e-01</leafValues></_>
    <_>
      <internalNodes>
        0 -1 94577 7.7211588621139526e-02</internalNodes>
      <leafValues>
        1.1342700570821762e-01 -6.2025618553161621e-01</leafValues></_>
    <_>
      <internalNodes>
        0 -1 63744 1.6494762152433395e-02</internalNodes>
      <leafValues>
        -4.2381936311721802e-01 1.8460276722908020e-01</leafValues></_></weakClassifiers></stage13>
</opencv_storage>
